%YAML:1.0
---
opencv_ml_svm:
   format: 3
   svmType: NU_SVC
   kernel:
      type: RBF
      gamma: 5.0625000000000009e-01
   nu: 8.9999999999999997e-02
   term_criteria: { iterations:100000 }
   var_count: 1200
   class_count: 2
   class_labels: !!opencv-matrix
      rows: 2
      cols: 1
      dt: i
      data: [ 0, 1 ]
   sv_total: 136
   support_vectors:
      - [ 2.14286000e-02, 1.42857004e-02, 0., 0., 0., 0., 0.,
          7.14285998e-03, 0., 0., 0., 7.14285998e-03, 0., 7.14285998e-03,
          7.14285998e-03, 7.14285998e-03, 0., 0., 0., 0., 7.14285998e-03,
          1.42857004e-02, 7.14285998e-03, 1.42857004e-02, 7.14285998e-03,
          0., 0., 7.14285998e-03, 0., 0., 7.14285998e-03, 0., 0.,
          1.42857004e-02, 0., 1.42857004e-02, 1.42857004e-02,
          1.42857004e-02, 1.42857004e-02, 0., 0., 7.14285998e-03, 0., 0.,
          0., 0., 0., 0., 0., 4.28570993e-02, 1.42857004e-02, 0., 0.,
          7.14285998e-03, 7.14285998e-03, 1.42857004e-02, 7.14285998e-03,
          1.42857004e-02, 7.14285998e-03, 0., 0., 0., 0., 1.42857004e-02,
          0., 0., 7.14285998e-03, 0., 7.14285998e-03, 2.14286000e-02, 0.,
          0., 1.42857004e-02, 7.14285998e-03, 0., 0., 7.14285998e-03, 0.,
          2.85714008e-02, 0., 0., 0., 0., 0., 0., 1.42857004e-02, 0.,
          1.42857004e-02, 7.14285998e-03, 0., 7.14285998e-03, 0., 0., 0.,
          1.42857004e-02, 0., 1.42857004e-02, 7.14285998e-03, 0.,
          1.42857004e-02, 1.42857004e-02, 2.85714008e-02, 0.,
          7.14285998e-03, 0., 7.14285998e-03, 0., 7.14285998e-03, 0., 0.,
          0., 7.14285998e-03, 7.14285998e-03, 0., 0., 7.14285998e-03, 0.,
          0., 7.14285998e-03, 0., 0., 0., 0., 1.42857004e-02,
          7.14285998e-03, 0., 7.14285998e-03, 0., 0., 0., 7.14285998e-03,
          0., 7.14285998e-03, 7.14285998e-03, 0., 0., 2.14286000e-02, 0.,
          0., 7.14285998e-03, 0., 1.42857004e-02, 0., 0., 0., 0., 0.,
          7.14285998e-03, 0., 7.14285998e-03, 0., 0., 2.14286000e-02, 0.,
          0., 7.14285998e-03, 0., 0., 0., 7.14285998e-03, 0.,
          7.14285998e-03, 0., 0., 7.14285998e-03, 7.14285998e-03,
          7.14285998e-03, 0., 1.42857004e-02, 7.14285998e-03, 0.,
          1.42857004e-02, 0., 7.14285998e-03, 0., 0., 0., 1.42857004e-02,
          7.14285998e-03, 0., 7.14285998e-03, 0., 0., 7.14285998e-03,
          7.14285998e-03, 0., 7.14285998e-03, 2.85714008e-02,
          7.14285998e-03, 1.42857004e-02, 0., 7.14285998e-03,
          1.42857004e-02, 0., 7.14285998e-03, 1.42857004e-02, 0.,
          7.14285998e-03, 1.42857004e-02, 0., 1.23153003e-02,
          2.46304995e-03, 4.92611015e-03, 4.92611015e-03, 2.46304995e-03,
          4.92611015e-03, 4.92611015e-03, 7.38915987e-03, 2.46304995e-03,
          4.92611015e-03, 0., 4.92611015e-03, 7.38915987e-03,
          1.23153003e-02, 4.92611015e-03, 4.92611015e-03, 4.92611015e-03,
          0., 7.38915987e-03, 7.38915987e-03, 4.92611015e-03,
          2.46304995e-03, 2.46304995e-03, 1.47783002e-02, 3.44827995e-02,
          7.38915987e-03, 0., 2.46304995e-03, 9.85222030e-03,
          1.23153003e-02, 0., 2.46304995e-03, 2.46304995e-03,
          1.23153003e-02, 2.46304995e-03, 4.92611015e-03, 7.38915987e-03,
          2.46304995e-03, 1.23153003e-02, 0., 0., 2.46304995e-03,
          2.46304995e-03, 2.46304995e-03, 2.46304995e-03, 4.92611015e-03,
          2.46304995e-03, 2.46305000e-02, 4.92611015e-03, 4.92611015e-03,
          2.46304995e-03, 0., 0., 7.38915987e-03, 2.46304995e-03,
          2.46305000e-02, 0., 4.92611015e-03, 0., 0., 4.92611015e-03,
          7.38915987e-03, 2.46304995e-03, 4.92611015e-03, 0.,
          2.46304995e-03, 2.46304995e-03, 0., 4.92611015e-03,
          2.21675001e-02, 4.92611015e-03, 0., 2.46304995e-03,
          9.85222030e-03, 4.92611015e-03, 2.46304995e-03, 4.92611015e-03,
          0., 7.38915987e-03, 9.85222030e-03, 4.92611015e-03, 0.,
          2.46304995e-03, 7.38915987e-03, 4.92611015e-03, 4.92611015e-03,
          0., 4.92611015e-03, 2.46304995e-03, 0., 0., 9.85222030e-03, 0.,
          0., 1.47783002e-02, 9.85222030e-03, 0., 4.92611015e-03,
          7.38915987e-03, 2.46304995e-03, 0., 9.85222030e-03, 0.,
          2.46304995e-03, 0., 9.85222030e-03, 4.92611015e-03,
          2.46304995e-03, 1.23153003e-02, 2.46304995e-03, 2.46304995e-03,
          2.46304995e-03, 9.85222030e-03, 4.92611015e-03, 4.92611015e-03,
          2.46304995e-03, 0., 7.38915987e-03, 9.85222030e-03,
          2.46304995e-03, 0., 7.38915987e-03, 4.92611015e-03,
          7.38915987e-03, 2.46304995e-03, 4.92611015e-03, 4.92611015e-03,
          4.92611015e-03, 4.92611015e-03, 0., 2.21675001e-02,
          4.92611015e-03, 0., 0., 2.46304995e-03, 9.85222030e-03,
          2.46304995e-03, 9.85222030e-03, 1.23153003e-02, 0.,
          2.46304995e-03, 7.38915987e-03, 4.92611015e-03, 7.38915987e-03,
          4.92611015e-03, 0., 0., 7.38915987e-03, 2.46304995e-03,
          4.92611015e-03, 2.46304995e-03, 2.46304995e-03, 1.72413997e-02,
          4.92611015e-03, 4.92611015e-03, 4.92611015e-03, 0., 0., 0., 0.,
          4.92611015e-03, 2.46304995e-03, 4.92611015e-03, 2.46304995e-03,
          4.92611015e-03, 2.46304995e-03, 0., 4.92611015e-03,
          4.92611015e-03, 4.92611015e-03, 2.46304995e-03, 2.46304995e-03,
          2.46304995e-03, 0., 2.46304995e-03, 2.46304995e-03,
          2.46304995e-03, 0., 9.85222030e-03, 4.92611015e-03,
          4.92611015e-03, 2.46304995e-03, 4.92611015e-03, 0.,
          3.20197009e-02, 2.46304995e-03, 7.38915987e-03, 2.46304995e-03,
          1.47783002e-02, 9.85222030e-03, 2.46304995e-03, 4.92611015e-03,
          1.23153003e-02, 2.46304995e-03, 4.92611015e-03, 1.23153003e-02,
          4.92611015e-03, 4.92611015e-03, 4.92611015e-03, 4.92611015e-03,
          1.15830004e-02, 0., 0., 1.54440003e-02, 0., 3.86100006e-03, 0.,
          3.86100006e-03, 7.72200990e-03, 3.86100006e-03, 0.,
          1.15830004e-02, 0., 2.31660008e-02, 3.86100006e-03,
          7.72200990e-03, 0., 7.72200990e-03, 7.72200990e-03,
          3.86100006e-03, 7.72200990e-03, 0., 3.86100006e-03,
          3.86100006e-03, 3.08880005e-02, 7.72200990e-03, 0.,
          3.86100006e-03, 7.72200990e-03, 3.86100006e-03, 3.86100006e-03,
          3.86100006e-03, 0., 3.86100006e-03, 0., 7.72200990e-03,
          7.72200990e-03, 0., 7.72200990e-03, 0., 0., 0., 1.54440003e-02,
          0., 7.72200990e-03, 0., 0., 7.72200990e-03, 3.86100006e-03,
          3.86100006e-03, 3.86100006e-03, 0., 3.86100006e-03,
          7.72200990e-03, 3.86100006e-03, 1.93050001e-02, 0.,
          7.72200990e-03, 0., 0., 3.86100006e-03, 0., 0., 0., 0., 0.,
          1.15830004e-02, 0., 0., 1.93050001e-02, 0., 3.86100006e-03,
          3.86100006e-03, 1.93050001e-02, 0., 3.86100006e-03,
          1.54440003e-02, 0., 7.72200990e-03, 0., 7.72200990e-03,
          3.86100006e-03, 0., 3.86100006e-03, 1.15830004e-02, 0., 0.,
          7.72200990e-03, 7.72200990e-03, 0., 1.54440003e-02,
          7.72200990e-03, 0., 7.72200990e-03, 7.72200990e-03,
          1.54440003e-02, 3.86100006e-03, 0., 0., 3.86100006e-03, 0.,
          3.86100006e-03, 3.86100006e-03, 7.72200990e-03, 7.72200990e-03,
          7.72200990e-03, 7.72200990e-03, 3.86100006e-03, 7.72200990e-03,
          7.72200990e-03, 0., 1.15830004e-02, 3.86100006e-03,
          7.72200990e-03, 3.86100006e-03, 3.86100006e-03, 0.,
          1.54440003e-02, 3.86100006e-03, 7.72200990e-03, 3.86100006e-03,
          3.86100006e-03, 7.72200990e-03, 0., 7.72200990e-03,
          3.86100006e-03, 1.54440003e-02, 3.86100006e-03, 0.,
          3.86100006e-03, 0., 7.72200990e-03, 3.86100006e-03,
          3.86100006e-03, 0., 0., 1.93050001e-02, 1.15830004e-02, 0.,
          3.86100006e-03, 3.86100006e-03, 3.86100006e-03, 0.,
          7.72200990e-03, 3.86100006e-03, 3.86100006e-03, 0.,
          7.72200990e-03, 3.86100006e-03, 0., 3.86100006e-03, 0., 0.,
          1.54440003e-02, 1.15830004e-02, 7.72200990e-03, 0., 0.,
          3.86100006e-03, 7.72200990e-03, 0., 3.86100006e-03,
          3.86100006e-03, 3.86100006e-03, 0., 7.72200990e-03,
          7.72200990e-03, 3.86100006e-03, 3.86100006e-03, 3.86100006e-03,
          7.72200990e-03, 0., 0., 0., 7.72200990e-03, 0., 1.15830004e-02,
          7.72200990e-03, 7.72200990e-03, 7.72200990e-03, 3.86100006e-03,
          0., 0., 7.72200990e-03, 1.54440003e-02, 0., 1.93050001e-02,
          1.15830004e-02, 0., 0., 3.86100006e-03, 1.15830004e-02,
          7.72200990e-03, 0., 7.72200990e-03, 3.86100006e-03, 0.,
          3.86100006e-03, 7.72200990e-03, 1.15830004e-02, 1.45985000e-02,
          3.64963990e-03, 0., 0., 1.09489001e-02, 1.09489001e-02, 0.,
          3.64963990e-03, 7.29927002e-03, 1.09489001e-02, 3.64963990e-03,
          3.64963990e-03, 0., 7.29927002e-03, 3.64963990e-03,
          2.18978003e-02, 1.45985000e-02, 1.45985000e-02, 3.64963990e-03,
          7.29927002e-03, 2.55474001e-02, 0., 0., 7.29927002e-03,
          1.82482004e-02, 3.64963990e-03, 7.29927002e-03, 7.29927002e-03,
          0., 3.64963990e-03, 1.09489001e-02, 7.29927002e-03,
          3.64963990e-03, 3.64963990e-03, 0., 3.64963990e-03, 0.,
          3.64963990e-03, 3.64963990e-03, 3.64963990e-03, 0.,
          3.64963990e-03, 1.09489001e-02, 0., 0., 3.64963990e-03, 0.,
          1.82482004e-02, 0., 7.29927002e-03, 0., 0., 0., 3.64963990e-03,
          0., 7.29927002e-03, 3.64963990e-03, 1.09489001e-02,
          3.64963990e-03, 3.64963990e-03, 3.64963990e-03, 7.29927002e-03,
          3.64963990e-03, 3.64963990e-03, 7.29927002e-03, 0.,
          7.29927002e-03, 0., 0., 2.55474001e-02, 7.29927002e-03,
          3.64963990e-03, 7.29927002e-03, 7.29927002e-03, 1.09489001e-02,
          7.29927002e-03, 0., 1.09489001e-02, 1.09489001e-02, 0.,
          3.64963990e-03, 0., 0., 3.64963990e-03, 7.29927002e-03, 0., 0.,
          0., 3.64963990e-03, 0., 3.64963990e-03, 0., 0., 7.29927002e-03,
          0., 1.09489001e-02, 0., 0., 1.09489001e-02, 0., 7.29927002e-03,
          7.29927002e-03, 7.29927002e-03, 7.29927002e-03, 3.64963990e-03,
          3.64963990e-03, 3.64963990e-03, 3.64963990e-03, 1.09489001e-02,
          1.09489001e-02, 0., 1.09489001e-02, 1.82482004e-02,
          3.64963990e-03, 7.29927002e-03, 3.64963990e-03, 0.,
          3.64963990e-03, 3.64963990e-03, 3.64963990e-03, 7.29927002e-03,
          0., 0., 3.64963990e-03, 0., 7.29927002e-03, 1.09489001e-02,
          3.64963990e-03, 3.64963990e-03, 3.64963990e-03, 1.09489001e-02,
          1.09489001e-02, 3.64963990e-03, 0., 3.64963990e-03,
          3.64963990e-03, 7.29927002e-03, 3.64963990e-03, 1.09489001e-02,
          0., 3.64963990e-03, 0., 1.09489001e-02, 3.64963990e-03, 0.,
          7.29927002e-03, 0., 3.64963990e-03, 3.64963990e-03,
          3.64963990e-03, 0., 7.29927002e-03, 3.64963990e-03, 0., 0.,
          1.45985000e-02, 0., 0., 3.64963990e-03, 7.29927002e-03,
          1.09489001e-02, 3.64963990e-03, 3.64963990e-03, 1.09489001e-02,
          3.64963990e-03, 1.09489001e-02, 3.64963990e-03, 3.64963990e-03,
          3.64963990e-03, 0., 0., 0., 3.64963990e-03, 0., 7.29927002e-03,
          3.64963990e-03, 0., 7.29927002e-03, 1.09489001e-02,
          3.64963990e-03, 1.45985000e-02, 0., 3.64963990e-03, 0.,
          1.82482004e-02, 3.64963990e-03, 1.82482004e-02, 0.,
          3.64963990e-03, 0., 1.09489001e-02, 3.64963990e-03, 0., 0.,
          1.09489001e-02, 7.29927002e-03, 3.64963990e-03, 0.,
          7.29927002e-03, 7.29927002e-03, 4.16667014e-03, 0.,
          4.16667014e-03, 0., 4.16667014e-03, 8.33333004e-03,
          8.33333004e-03, 4.16667014e-03, 0., 8.33333004e-03,
          4.16667014e-03, 1.25000002e-02, 4.16667014e-03, 2.08333004e-02,
          0., 4.16667014e-03, 8.33333004e-03, 0., 4.16667014e-03,
          4.16667014e-03, 4.16667014e-03, 8.33333004e-03, 8.33333004e-03,
          4.16667014e-03, 2.08333004e-02, 4.16667014e-03, 0., 0.,
          4.16667014e-03, 8.33333004e-03, 0., 4.16667014e-03, 0.,
          4.16667014e-03, 4.16667014e-03, 1.25000002e-02, 1.25000002e-02,
          0., 4.16667014e-03, 0., 4.16667014e-03, 4.16667014e-03,
          8.33333004e-03, 0., 8.33333004e-03, 1.25000002e-02,
          8.33333004e-03, 2.08333004e-02, 4.16667014e-03, 0., 0., 0., 0.,
          8.33333004e-03, 0., 1.25000002e-02, 8.33333004e-03,
          8.33333004e-03, 1.25000002e-02, 0., 1.25000002e-02, 0.,
          4.16667014e-03, 0., 1.25000002e-02, 4.16667014e-03, 0., 0.,
          4.16667014e-03, 1.66666992e-02, 1.66666992e-02, 0.,
          4.16667014e-03, 1.66666992e-02, 0., 1.25000002e-02,
          8.33333004e-03, 4.16667014e-03, 4.16667014e-03, 0.,
          4.16667014e-03, 4.16667014e-03, 4.16667014e-03, 4.16667014e-03,
          4.16667014e-03, 1.66666992e-02, 0., 1.25000002e-02, 0.,
          4.16667014e-03, 1.25000002e-02, 4.16667014e-03, 0.,
          4.16667014e-03, 1.25000002e-02, 1.66666992e-02, 4.16667014e-03,
          0., 1.25000002e-02, 0., 4.16667014e-03, 4.16667014e-03, 0., 0.,
          4.16667014e-03, 4.16667014e-03, 4.16667014e-03, 0.,
          1.25000002e-02, 0., 4.16667014e-03, 8.33333004e-03, 0., 0., 0.,
          1.66666992e-02, 0., 4.16667014e-03, 0., 8.33333004e-03, 0.,
          8.33333004e-03, 8.33333004e-03, 0., 8.33333004e-03, 0.,
          1.25000002e-02, 4.16667014e-03, 0., 4.16667014e-03,
          1.25000002e-02, 8.33333004e-03, 0., 8.33333004e-03, 0.,
          4.16667014e-03, 8.33333004e-03, 1.25000002e-02, 1.25000002e-02,
          0., 1.25000002e-02, 0., 4.16667014e-03, 8.33333004e-03, 0., 0.,
          4.16667014e-03, 0., 0., 0., 1.25000002e-02, 8.33333004e-03, 0.,
          4.16667014e-03, 0., 4.16667014e-03, 0., 0., 1.25000002e-02, 0.,
          4.16667014e-03, 0., 0., 4.16667014e-03, 0., 4.16667014e-03, 0.,
          4.16667014e-03, 0., 4.16667014e-03, 0., 0., 0., 0.,
          4.16667014e-03, 4.16667014e-03, 4.16667014e-03, 1.66666992e-02,
          2.50000004e-02, 4.16667014e-03, 0., 0., 8.33333004e-03,
          4.16667014e-03, 8.33333004e-03, 8.33333004e-03, 4.16667014e-03,
          8.33333004e-03, 0., 0., 8.33333004e-03, 0., 1.25000002e-02, 0.,
          0., 4.16667014e-03, 0., 8.33333004e-03, 4.16667014e-03,
          1.25000002e-02, 0., 1.74419004e-02, 5.81395021e-03,
          5.81395021e-03, 5.81395021e-03, 1.16279004e-02, 1.74419004e-02,
          0., 0., 0., 5.81395021e-03, 5.81395021e-03, 5.81395021e-03,
          5.81395021e-03, 0., 5.81395021e-03, 5.81395021e-03,
          2.32558008e-02, 0., 5.81395021e-03, 5.81395021e-03,
          1.74419004e-02, 0., 1.16279004e-02, 5.81395021e-03, 0., 0.,
          5.81395021e-03, 0., 1.16279004e-02, 0., 0., 5.81395021e-03, 0.,
          0., 5.81395021e-03, 5.81395021e-03, 0., 0., 0., 0., 0.,
          1.16279004e-02, 0., 5.81395021e-03, 2.32558008e-02, 0.,
          1.74419004e-02, 5.81395021e-03, 2.90697999e-02, 5.81395021e-03,
          5.81395021e-03, 0., 5.81395021e-03, 0., 1.16279004e-02, 0., 0.,
          0., 0., 0., 5.81395021e-03, 5.81395021e-03, 5.81395021e-03, 0.,
          0., 0., 0., 5.81395021e-03, 1.74419004e-02, 5.81395021e-03,
          5.81395021e-03, 0., 5.81395021e-03, 0., 5.81395021e-03,
          5.81395021e-03, 0., 5.81395021e-03, 0., 5.81395021e-03, 0.,
          5.81395021e-03, 0., 0., 4.06977013e-02, 0., 0., 1.74419004e-02,
          5.81395021e-03, 5.81395021e-03, 0., 5.81395021e-03, 0., 0.,
          5.81395021e-03, 5.81395021e-03, 1.74419004e-02, 1.16279004e-02,
          0., 0., 0., 5.81395021e-03, 0., 0., 5.81395021e-03,
          5.81395021e-03, 1.16279004e-02, 0., 2.32558008e-02, 0.,
          5.81395021e-03, 5.81395021e-03, 0., 0., 0., 0., 5.81395021e-03,
          0., 1.74419004e-02, 5.81395021e-03, 1.16279004e-02, 0.,
          1.16279004e-02, 5.81395021e-03, 0., 5.81395021e-03,
          5.81395021e-03, 5.81395021e-03, 5.81395021e-03, 5.81395021e-03,
          5.81395021e-03, 0., 0., 5.81395021e-03, 5.81395021e-03,
          1.16279004e-02, 0., 5.81395021e-03, 0., 1.16279004e-02, 0., 0.,
          5.81395021e-03, 0., 0., 0., 1.74419004e-02, 0., 0., 0.,
          5.81395021e-03, 1.16279004e-02, 5.81395021e-03, 5.81395021e-03,
          5.81395021e-03, 1.16279004e-02, 0., 1.16279004e-02, 0.,
          5.81395021e-03, 0., 0., 5.81395021e-03, 0., 0., 5.81395021e-03,
          2.32558008e-02, 1.16279004e-02, 0., 5.81395021e-03,
          5.81395021e-03, 0., 5.81395021e-03, 0., 5.81395021e-03,
          1.16279004e-02, 5.81395021e-03, 5.81395021e-03, 5.81395021e-03,
          0., 0., 0., 5.81395021e-03, 1.16279004e-02, 2.32558008e-02,
          1.16279004e-02, 5.81395021e-03, 5.81395021e-03, 0.,
          5.81395021e-03, 0., 5.81395021e-03, 0., 0., 0., 0., 0.,
          1.16279004e-02, 0. ]
      - [ 6.09291997e-03, 4.56969021e-03, 4.56969021e-03, 9.90098994e-03,
          3.04645998e-03, 4.56969021e-03, 6.85452996e-03, 7.61615019e-03,
          8.37775972e-03, 6.85452996e-03, 3.04645998e-03, 6.09291997e-03,
          4.56969021e-03, 1.21857999e-02, 7.61615019e-03, 2.28483998e-03,
          7.61615019e-03, 6.09291997e-03, 3.04645998e-03, 4.56969021e-03,
          9.13938042e-03, 6.09291997e-03, 3.04645998e-03, 4.56969021e-03,
          6.85452996e-03, 2.28483998e-03, 2.28483998e-03, 6.09291997e-03,
          7.61615019e-03, 9.90098994e-03, 3.80806997e-03, 1.14241997e-02,
          3.80806997e-03, 3.04645998e-03, 5.33130020e-03, 6.85452996e-03,
          6.85452996e-03, 5.33130020e-03, 3.04645998e-03, 6.09291997e-03,
          3.04645998e-03, 4.56969021e-03, 9.90098994e-03, 1.29474001e-02,
          7.61615019e-03, 5.33130020e-03, 6.09291997e-03, 7.61615019e-03,
          2.28483998e-03, 4.56969021e-03, 3.80806997e-03, 3.04645998e-03,
          3.04645998e-03, 4.56969021e-03, 0., 5.33130020e-03,
          1.52322999e-03, 9.13938042e-03, 2.28483998e-03, 7.61614996e-04,
          1.52322999e-03, 3.04645998e-03, 6.85452996e-03, 2.28483998e-03,
          4.56969021e-03, 1.52322999e-03, 4.56969021e-03, 3.04645998e-03,
          4.56969021e-03, 5.33130020e-03, 2.28483998e-03, 5.33130020e-03,
          3.04645998e-03, 3.80806997e-03, 7.61615019e-03, 6.85452996e-03,
          8.37775972e-03, 2.28483998e-03, 6.09291997e-03, 5.33130020e-03,
          6.09291997e-03, 3.80806997e-03, 6.85452996e-03, 6.09291997e-03,
          4.56969021e-03, 5.33130020e-03, 3.80806997e-03, 6.85452996e-03,
          3.04645998e-03, 5.33130020e-03, 5.33130020e-03, 3.04645998e-03,
          4.56969021e-03, 8.37775972e-03, 3.80806997e-03, 3.80806997e-03,
          4.56969021e-03, 3.04645998e-03, 3.04645998e-03, 7.61615019e-03,
          6.85452996e-03, 2.28483998e-03, 6.85452996e-03, 3.80806997e-03,
          2.28483998e-03, 5.33130020e-03, 2.28483998e-03, 6.85452996e-03,
          5.33130020e-03, 3.04645998e-03, 3.04645998e-03, 3.04645998e-03,
          9.90098994e-03, 3.04645998e-03, 3.04645998e-03, 6.09291997e-03,
          1.06626004e-02, 3.80806997e-03, 7.61614996e-04, 9.90098994e-03,
          1.52322999e-03, 9.90098994e-03, 5.33130020e-03, 1.52322999e-03,
          5.33130020e-03, 8.37775972e-03, 6.09291997e-03, 2.28483998e-03,
          9.13938042e-03, 5.33130020e-03, 2.28483998e-03, 3.04645998e-03,
          6.09291997e-03, 3.80806997e-03, 6.85452996e-03, 6.09291997e-03,
          1.21857999e-02, 6.85452996e-03, 6.85452996e-03, 0.,
          4.56969021e-03, 3.80806997e-03, 4.56969021e-03, 9.90098994e-03,
          7.61614996e-04, 3.80806997e-03, 7.61614996e-04, 3.04645998e-03,
          5.33130020e-03, 6.09291997e-03, 3.04645998e-03, 7.61615019e-03,
          2.28483998e-03, 6.09291997e-03, 5.33130020e-03, 1.14241997e-02,
          8.37775972e-03, 2.28483998e-03, 7.61614996e-04, 3.80806997e-03,
          6.85452996e-03, 1.52322999e-03, 6.85452996e-03, 1.06626004e-02,
          1.52322999e-03, 7.61614996e-04, 4.56969021e-03, 4.56969021e-03,
          3.04645998e-03, 1.52322999e-03, 3.80806997e-03, 2.28483998e-03,
          3.80806997e-03, 3.80806997e-03, 4.56969021e-03, 5.33130020e-03,
          9.13938042e-03, 7.61615019e-03, 8.37775972e-03, 5.33130020e-03,
          3.04645998e-03, 4.56969021e-03, 9.90098994e-03, 2.28483998e-03,
          7.61615019e-03, 3.04645998e-03, 5.33130020e-03, 6.85452996e-03,
          4.56969021e-03, 1.52322999e-03, 5.33130020e-03, 6.09291997e-03,
          3.04645998e-03, 3.04645998e-03, 7.61615019e-03, 7.61614996e-04,
          2.28483998e-03, 3.80806997e-03, 0., 4.56969021e-03,
          2.61323992e-03, 4.35539987e-03, 3.48431990e-03, 6.96863979e-03,
          6.96863979e-03, 1.74215995e-03, 5.22647984e-03, 6.96863979e-03,
          9.58187971e-03, 8.71079974e-03, 2.61323992e-03, 4.35539987e-03,
          8.71079974e-04, 6.09755982e-03, 7.83971976e-03, 1.74215995e-03,
          1.39373001e-02, 7.83971976e-03, 5.22647984e-03, 6.09755982e-03,
          6.09755982e-03, 2.61323992e-03, 6.09755982e-03, 9.58187971e-03,
          3.48431990e-03, 5.22647984e-03, 8.71079974e-04, 5.22647984e-03,
          9.58187971e-03, 1.74215995e-03, 4.35539987e-03, 5.22647984e-03,
          7.83971976e-03, 6.09755982e-03, 3.48431990e-03, 2.61323992e-03,
          4.35539987e-03, 1.04529997e-02, 2.61323992e-03, 4.35539987e-03,
          4.35539987e-03, 8.71079974e-04, 2.61323992e-03, 5.22647984e-03,
          5.22647984e-03, 4.35539987e-03, 2.61323992e-03, 6.09755982e-03,
          2.61323992e-03, 1.74215995e-03, 2.61323992e-03, 1.74215995e-03,
          7.83971976e-03, 6.96863979e-03, 0., 3.48431990e-03,
          4.35539987e-03, 6.09755982e-03, 2.61323992e-03, 1.74215995e-03,
          3.48431990e-03, 6.96863979e-03, 6.96863979e-03, 3.48431990e-03,
          6.09755982e-03, 2.61323992e-03, 2.61323992e-03, 3.48431990e-03,
          3.48431990e-03, 6.09755982e-03, 4.35539987e-03, 3.48431990e-03,
          4.35539987e-03, 7.83971976e-03, 5.22647984e-03, 8.71079974e-04,
          2.61323992e-03, 8.71079974e-04, 1.04529997e-02, 7.83971976e-03,
          9.58187971e-03, 5.22647984e-03, 3.48431990e-03, 2.61323992e-03,
          1.04529997e-02, 5.22647984e-03, 2.61323992e-03, 9.58187971e-03,
          2.61323992e-03, 4.35539987e-03, 9.58187971e-03, 6.96863979e-03,
          7.83971976e-03, 3.48431990e-03, 3.48431990e-03, 5.22647984e-03,
          3.48431990e-03, 0., 8.71079974e-04, 4.35539987e-03,
          6.09755982e-03, 6.09755982e-03, 7.83971976e-03, 6.96863979e-03,
          3.48431990e-03, 4.35539987e-03, 3.48431990e-03, 7.83971976e-03,
          4.35539987e-03, 6.09755982e-03, 1.74215995e-03, 3.48431990e-03,
          9.58187971e-03, 5.22647984e-03, 4.35539987e-03, 2.61323992e-03,
          4.35539987e-03, 4.35539987e-03, 3.48431990e-03, 7.83971976e-03,
          8.71079974e-03, 4.35539987e-03, 6.96863979e-03, 1.74215995e-03,
          1.74215995e-03, 7.83971976e-03, 6.09755982e-03, 6.09755982e-03,
          6.96863979e-03, 6.96863979e-03, 5.22647984e-03, 5.22647984e-03,
          4.35539987e-03, 4.35539987e-03, 8.71079974e-03, 8.71079974e-04,
          6.96863979e-03, 4.35539987e-03, 6.96863979e-03, 2.61323992e-03,
          4.35539987e-03, 6.09755982e-03, 6.09755982e-03, 6.09755982e-03,
          2.61323992e-03, 1.74215995e-03, 1.74215995e-03, 6.96863979e-03,
          4.35539987e-03, 6.09755982e-03, 8.71079974e-04, 6.09755982e-03,
          5.22647984e-03, 2.61323992e-03, 2.61323992e-03, 1.21951001e-02,
          1.56794004e-02, 8.71079974e-04, 4.35539987e-03, 2.61323992e-03,
          2.61323992e-03, 3.48431990e-03, 7.83971976e-03, 2.61323992e-03,
          1.74215995e-03, 8.71079974e-04, 5.22647984e-03, 3.48431990e-03,
          2.61323992e-03, 6.96863979e-03, 2.61323992e-03, 1.74215995e-03,
          1.39373001e-02, 3.48431990e-03, 6.09755982e-03, 6.09755982e-03,
          6.09755982e-03, 6.09755982e-03, 6.09755982e-03, 5.22647984e-03,
          3.48431990e-03, 8.71079974e-04, 7.83971976e-03, 3.48431990e-03,
          6.96863979e-03, 1.04529997e-02, 1.21951001e-02, 4.35539987e-03,
          3.48431990e-03, 0., 6.96863979e-03, 5.22647984e-03,
          3.48431990e-03, 2.61323992e-03, 9.58187971e-03, 6.96863979e-03,
          6.09755982e-03, 7.83971976e-03, 6.96863979e-03, 3.48431990e-03,
          4.41695983e-03, 5.30035002e-03, 1.76678004e-03, 1.32509004e-02,
          4.41695983e-03, 5.30035002e-03, 2.65017990e-03, 8.83391965e-03,
          3.53357010e-03, 7.95053039e-03, 8.83392000e-04, 2.65017990e-03,
          2.65017990e-03, 8.83391965e-03, 6.18375000e-03, 3.53357010e-03,
          7.06714019e-03, 7.06714019e-03, 3.53357010e-03, 1.76678002e-02,
          9.71730985e-03, 7.06714019e-03, 4.41695983e-03, 6.18375000e-03,
          3.53357010e-03, 6.18375000e-03, 4.41695983e-03, 6.18375000e-03,
          1.76678004e-03, 7.06714019e-03, 7.06714019e-03, 5.30035002e-03,
          5.30035002e-03, 4.41695983e-03, 5.30035002e-03, 3.53357010e-03,
          5.30035002e-03, 3.53357010e-03, 4.41695983e-03, 2.65017990e-03,
          4.41695983e-03, 8.83392000e-04, 4.41695983e-03, 2.65017990e-03,
          6.18375000e-03, 8.83392000e-04, 5.30035002e-03, 7.06714019e-03,
          2.65017990e-03, 6.18375000e-03, 3.53357010e-03, 1.76678004e-03,
          5.30035002e-03, 1.76678004e-03, 1.76678004e-03, 6.18375000e-03,
          6.18375000e-03, 5.30035002e-03, 4.41695983e-03, 0.,
          3.53357010e-03, 4.41695983e-03, 7.95053039e-03, 6.18375000e-03,
          6.18375000e-03, 1.76678004e-03, 1.76678004e-03, 8.83392000e-04,
          1.06007000e-02, 8.83391965e-03, 2.65017990e-03, 1.06007000e-02,
          6.18375000e-03, 1.76678004e-03, 7.06714019e-03, 4.41695983e-03,
          3.53357010e-03, 1.76678004e-03, 7.06714019e-03, 4.41695983e-03,
          7.06714019e-03, 2.65017990e-03, 5.30035002e-03, 8.83392000e-04,
          7.95053039e-03, 6.18375000e-03, 3.53357010e-03, 1.23675000e-02,
          5.30035002e-03, 2.65017990e-03, 5.30035002e-03, 6.18375000e-03,
          1.14840996e-02, 4.41695983e-03, 2.65017990e-03, 6.18375000e-03,
          5.30035002e-03, 2.65017990e-03, 5.30035002e-03, 4.41695983e-03,
          3.53357010e-03, 2.65017990e-03, 4.41695983e-03, 5.30035002e-03,
          8.83392000e-04, 6.18375000e-03, 7.06714019e-03, 1.06007000e-02,
          5.30035002e-03, 6.18375000e-03, 2.65017990e-03, 5.30035002e-03,
          9.71730985e-03, 5.30035002e-03, 1.76678004e-03, 7.06714019e-03,
          4.41695983e-03, 6.18375000e-03, 7.06714019e-03, 5.30035002e-03,
          7.95053039e-03, 5.30035002e-03, 3.53357010e-03, 8.83392000e-04,
          4.41695983e-03, 1.23675000e-02, 5.30035002e-03, 1.76678004e-03,
          5.30035002e-03, 4.41695983e-03, 4.41695983e-03, 8.83392000e-04,
          9.71730985e-03, 5.30035002e-03, 2.65017990e-03, 2.65017990e-03,
          1.14840996e-02, 4.41695983e-03, 6.18375000e-03, 0.,
          1.76678004e-03, 5.30035002e-03, 3.53357010e-03, 7.06714019e-03,
          0., 3.53357010e-03, 8.83392000e-04, 7.06714019e-03,
          2.65017990e-03, 1.76678004e-03, 2.65017990e-03, 9.71730985e-03,
          1.59010999e-02, 3.53357010e-03, 2.65017990e-03, 3.53357010e-03,
          3.53357010e-03, 0., 4.41695983e-03, 4.41695983e-03,
          9.71730985e-03, 2.65017990e-03, 6.18375000e-03, 5.30035002e-03,
          9.71730985e-03, 1.76678004e-03, 9.71730985e-03, 1.76678004e-03,
          2.65017990e-03, 6.18375000e-03, 1.76678004e-03, 2.65017990e-03,
          1.06007000e-02, 7.06714019e-03, 4.41695983e-03, 6.18375000e-03,
          1.06007000e-02, 5.30035002e-03, 5.30035002e-03, 5.30035002e-03,
          4.41695983e-03, 2.65017990e-03, 6.18375000e-03, 5.30035002e-03,
          2.65017990e-03, 5.30035002e-03, 8.83391965e-03, 9.71730985e-03,
          3.53357010e-03, 2.65017990e-03, 5.30035002e-03, 6.18375000e-03,
          8.83392000e-04, 8.83392000e-04, 8.83392000e-04, 5.30035002e-03,
          4.41695983e-03, 3.53357010e-03, 6.18375000e-03, 3.53357010e-03,
          3.35240997e-02, 4.08831006e-03, 8.17660999e-04, 5.72363008e-03,
          5.72363008e-03, 3.27065005e-03, 4.08831006e-03, 7.35895010e-03,
          8.99428036e-03, 8.17660987e-03, 3.27065005e-03, 2.45298003e-03,
          3.27065005e-03, 5.72363008e-03, 3.27065005e-03, 6.54128985e-03,
          4.90596984e-03, 4.90596984e-03, 2.45298003e-03, 2.69827992e-02,
          2.45298003e-03, 6.54128985e-03, 8.17660987e-03, 3.27065005e-03,
          7.35895010e-03, 4.08831006e-03, 2.45298003e-03, 2.45298003e-03,
          5.72363008e-03, 2.45298003e-03, 2.04415005e-02, 2.45298003e-03,
          4.90596984e-03, 1.63532002e-03, 2.45298003e-03, 8.99428036e-03,
          6.54128985e-03, 3.27065005e-03, 1.63532002e-03, 8.17660999e-04,
          4.08831006e-03, 1.63532002e-03, 7.35895010e-03, 4.90596984e-03,
          5.72363008e-03, 1.63532002e-03, 8.17660999e-04, 4.08831006e-03,
          2.45298003e-03, 3.27065005e-03, 1.63532002e-03, 2.45298003e-03,
          4.90596984e-03, 5.72363008e-03, 8.17660999e-04, 7.35895010e-03,
          2.45298003e-03, 1.14473002e-02, 4.90596984e-03, 0.,
          1.63532002e-03, 1.63532002e-03, 1.63532002e-03, 1.63532002e-03,
          7.35895010e-03, 8.17660999e-04, 4.08831006e-03, 0.,
          4.08831006e-03, 8.99428036e-03, 4.90596984e-03, 4.08831006e-03,
          7.35895010e-03, 1.63532002e-03, 4.90596984e-03, 3.27065005e-03,
          2.45298003e-03, 0., 8.99428036e-03, 4.08831006e-03,
          3.27065005e-03, 3.27065005e-03, 8.17660999e-04, 1.63532002e-03,
          1.06295999e-02, 8.17660987e-03, 1.63532002e-03, 8.17660987e-03,
          1.63532002e-03, 8.17660999e-04, 8.17660987e-03, 2.45298003e-03,
          9.81193967e-03, 3.27065005e-03, 3.27065005e-03, 4.90596984e-03,
          2.45298003e-03, 1.63532002e-03, 1.63532002e-03, 3.27065005e-03,
          1.22648999e-02, 8.17660987e-03, 2.45298003e-03, 4.90596984e-03,
          3.27065005e-03, 1.14473002e-02, 6.54128985e-03, 4.08831006e-03,
          3.27065005e-03, 3.27065005e-03, 7.35895010e-03, 8.17660987e-03,
          8.17660987e-03, 1.63532002e-03, 4.90596984e-03, 1.30826002e-02,
          2.28944998e-02, 4.08831006e-03, 5.72363008e-03, 3.27065005e-03,
          1.30826002e-02, 1.63532002e-03, 1.63532002e-03, 2.45298003e-03,
          4.90596984e-03, 1.30826002e-02, 8.17660999e-04, 1.63532002e-03,
          8.17660999e-04, 3.27065005e-03, 1.79885998e-02, 1.63532002e-03,
          4.08831006e-03, 3.27065005e-03, 4.90596984e-03, 8.17660999e-04,
          1.14473002e-02, 3.27065005e-03, 1.63532002e-03, 1.63532002e-03,
          4.08831006e-03, 7.35895010e-03, 4.08831006e-03, 5.72363008e-03,
          1.63532002e-03, 4.90596984e-03, 8.17660999e-04, 4.90596984e-03,
          8.17660987e-03, 1.63532002e-03, 1.14473002e-02, 4.08831006e-03,
          1.22648999e-02, 4.08831006e-03, 8.17660999e-04, 4.90596984e-03,
          1.55355996e-02, 0., 1.63532002e-03, 1.63532002e-03,
          8.17660999e-04, 3.27065005e-03, 7.35895010e-03, 5.72363008e-03,
          1.55355996e-02, 1.63532002e-03, 9.81193967e-03, 3.27065005e-03,
          1.63532002e-03, 1.30826002e-02, 8.17660999e-04, 4.08831006e-03,
          8.17660987e-03, 1.63532002e-03, 8.17660999e-04, 1.63532002e-03,
          4.90596984e-03, 8.17660999e-04, 4.90596984e-03, 2.45298003e-03,
          4.90596984e-03, 4.90596984e-03, 6.54128985e-03, 1.63532002e-03,
          8.17660987e-03, 6.54128985e-03, 9.81193967e-03, 4.08831006e-03,
          3.27065005e-03, 2.45298003e-03, 2.45298003e-03, 1.63532002e-03,
          3.27065005e-03, 1.63532002e-03, 8.17660987e-03, 7.35895010e-03,
          8.17660999e-04, 6.54128985e-03, 8.99428036e-03, 5.72363008e-03,
          2.61010993e-02, 2.44697998e-03, 0., 4.89395997e-03,
          2.44697998e-03, 1.63131999e-03, 4.07830020e-03, 2.44697998e-03,
          3.26263998e-03, 1.22349001e-02, 2.44697998e-03, 7.34094996e-03,
          2.44697998e-03, 4.07830020e-03, 5.70962019e-03, 1.63131999e-03,
          9.78793018e-03, 7.34094996e-03, 3.26263998e-03, 4.89395997e-03,
          3.26263998e-03, 1.63131999e-03, 5.70962019e-03, 4.07830020e-03,
          4.89395997e-03, 1.63131999e-03, 1.63131999e-03, 4.07830020e-03,
          4.89395997e-03, 1.63131999e-03, 3.18108015e-02, 6.52529020e-03,
          3.26263998e-03, 2.44697998e-03, 3.26263998e-03, 6.52529020e-03,
          4.07830020e-03, 5.70962019e-03, 2.44697998e-03, 3.26263998e-03,
          2.44697998e-03, 8.15660984e-04, 5.70962019e-03, 4.89395997e-03,
          6.52529020e-03, 8.15660984e-04, 1.63131999e-03, 5.70962019e-03,
          1.63131999e-03, 7.34094996e-03, 3.26263998e-03, 8.15660984e-04,
          4.07830020e-03, 3.26263998e-03, 8.15660984e-04, 2.44697998e-03,
          2.44697998e-03, 1.54975997e-02, 2.44697998e-03, 2.44697998e-03,
          1.30506000e-02, 2.44697998e-03, 3.26263998e-03, 4.89395997e-03,
          1.06036002e-02, 8.15660984e-04, 1.63131999e-03, 3.26263998e-03,
          2.44697998e-03, 2.44697998e-03, 3.26263998e-03, 9.78793018e-03,
          5.70962019e-03, 4.89395997e-03, 8.97227041e-03, 2.44697998e-03,
          2.44697998e-03, 0., 8.15660972e-03, 3.26263998e-03,
          9.78793018e-03, 2.44697998e-03, 4.07830020e-03, 1.63131999e-03,
          6.52529020e-03, 4.89395997e-03, 4.89395997e-03, 8.15660972e-03,
          1.63131999e-03, 0., 5.70962019e-03, 3.26263998e-03,
          1.22349001e-02, 3.26263998e-03, 4.07830020e-03, 8.15660972e-03,
          1.14192003e-02, 1.63131999e-03, 1.63131999e-03, 2.44697998e-03,
          1.38662001e-02, 1.63131999e-03, 5.70962019e-03, 3.26263998e-03,
          8.15660984e-04, 1.63131999e-03, 4.07830020e-03, 1.63131999e-03,
          4.07830020e-03, 4.07830020e-03, 3.26263998e-03, 3.26263998e-03,
          1.22349001e-02, 1.63131999e-03, 4.07830020e-03, 1.71288997e-02,
          2.36542001e-02, 1.63131999e-03, 8.15660972e-03, 4.07830020e-03,
          7.34094996e-03, 3.26263998e-03, 1.63131999e-03, 0.,
          4.07830020e-03, 7.34094996e-03, 2.44697998e-03, 0.,
          1.63131999e-03, 4.89395997e-03, 6.52529020e-03, 3.26263998e-03,
          9.78793018e-03, 1.14192003e-02, 4.89395997e-03, 1.63131999e-03,
          9.78793018e-03, 6.52529020e-03, 4.07830020e-03, 8.15660984e-04,
          6.52529020e-03, 3.26263998e-03, 5.70962019e-03, 7.34094996e-03,
          4.07830020e-03, 3.26263998e-03, 2.44697998e-03, 7.34094996e-03,
          8.15660972e-03, 8.15660984e-04, 7.34094996e-03, 4.07830020e-03,
          2.36542001e-02, 4.07830020e-03, 1.63131999e-03, 3.26263998e-03,
          1.30506000e-02, 1.63131999e-03, 1.14192003e-02, 8.15660984e-04,
          3.26263998e-03, 8.15660984e-04, 5.70962019e-03, 4.89395997e-03,
          1.71288997e-02, 1.63131999e-03, 7.34094996e-03, 1.63131999e-03,
          4.07830020e-03, 1.95758995e-02, 0., 4.07830020e-03,
          1.63131999e-03, 4.07830020e-03, 7.34094996e-03, 8.15660984e-04,
          4.89395997e-03, 4.89395997e-03, 4.89395997e-03, 4.07830020e-03,
          5.70962019e-03, 4.89395997e-03, 6.52529020e-03, 2.44697998e-03,
          3.26263998e-03, 5.70962019e-03, 1.30506000e-02, 8.15660984e-04,
          4.89395997e-03, 1.63131999e-03, 3.26263998e-03, 1.63131999e-03,
          4.89395997e-03, 2.44697998e-03, 6.52529020e-03, 2.44697998e-03,
          8.97227041e-03, 4.07830020e-03, 3.26263998e-03, 1.63131999e-03,
          3.67074013e-02, 3.33704008e-03, 1.11235003e-03, 2.22469005e-03,
          3.33704008e-03, 2.22469005e-03, 0., 4.44938987e-03,
          3.33704008e-03, 7.78642995e-03, 2.22469005e-03, 5.56174014e-03,
          4.44938987e-03, 2.22469005e-03, 8.89877975e-03, 1.11235003e-03,
          1.11234998e-02, 4.44938987e-03, 6.67408016e-03, 5.56174014e-03,
          7.78642995e-03, 1.11235003e-03, 4.44938987e-03, 1.11235003e-03,
          6.67408016e-03, 1.11235003e-03, 6.67408016e-03, 4.44938987e-03,
          6.67408016e-03, 7.78642995e-03, 1.44605003e-02, 2.22469005e-03,
          1.44605003e-02, 4.44938987e-03, 4.44938987e-03, 6.67408016e-03,
          2.22469005e-03, 1.11235003e-03, 5.56174014e-03, 1.11235003e-03,
          6.67408016e-03, 4.44938987e-03, 4.44938987e-03, 3.33704008e-03,
          2.22469005e-03, 1.11235003e-03, 0., 6.67408016e-03,
          1.11235003e-03, 7.78642995e-03, 2.22469005e-03, 1.11235003e-03,
          4.44938987e-03, 1.11235003e-03, 0., 4.44938987e-03,
          4.44938987e-03, 7.78642995e-03, 3.33704008e-03, 0.,
          1.22357998e-02, 6.67408016e-03, 1.11235003e-03, 4.44938987e-03,
          8.89877975e-03, 1.11235003e-03, 5.56174014e-03, 2.22469005e-03,
          1.11235003e-03, 1.44605003e-02, 5.56174014e-03, 3.33704008e-03,
          1.11235003e-03, 2.22469005e-03, 0., 1.11235003e-03, 0.,
          1.11235003e-03, 6.67408016e-03, 3.33704008e-03, 1.11235003e-03,
          2.22469005e-03, 1.11235003e-03, 4.44938987e-03, 8.89877975e-03,
          2.22469005e-03, 0., 5.56174014e-03, 1.11235003e-03,
          2.22469005e-03, 6.67408016e-03, 4.44938987e-03, 7.78642995e-03,
          1.11235003e-03, 3.33704008e-03, 4.44938987e-03, 4.44938987e-03,
          3.33704008e-03, 5.56174014e-03, 4.44938987e-03, 1.66852009e-02,
          2.22469005e-03, 2.22469005e-03, 5.56174014e-03, 4.44938987e-03,
          3.33704008e-03, 1.00111002e-02, 6.67408016e-03, 2.22469005e-03,
          1.11235003e-03, 1.11235003e-03, 3.33704008e-03, 7.78642995e-03,
          7.78642995e-03, 3.33704008e-03, 2.55839992e-02, 4.44938987e-02,
          5.56174014e-03, 5.56174014e-03, 6.67408016e-03, 6.67408016e-03,
          1.11235003e-03, 2.22469005e-03, 3.33704008e-03, 7.78642995e-03,
          5.56174014e-03, 7.78642995e-03, 5.56174014e-03, 3.33704008e-03,
          1.11235003e-03, 1.22357998e-02, 4.44938987e-03, 2.22469005e-03,
          3.33704008e-03, 4.44938987e-03, 5.56174014e-03, 8.89877975e-03,
          1.11235003e-03, 3.33704008e-03, 4.44938987e-03, 2.22469005e-03,
          5.56174014e-03, 3.33704008e-03, 4.44938987e-03, 2.22469005e-03,
          1.11235003e-03, 2.22469005e-03, 2.22469005e-03, 5.56174014e-03,
          4.44938987e-03, 5.56174014e-03, 4.44938987e-03, 1.44605003e-02,
          5.56174014e-03, 3.33704008e-03, 5.56174014e-03, 4.44938987e-03,
          1.11235003e-03, 1.00111002e-02, 4.44938987e-03, 2.22469005e-03,
          4.44938987e-03, 4.44938987e-03, 0., 3.78197990e-02,
          1.11235003e-03, 7.78642995e-03, 2.22469005e-03, 2.22469005e-03,
          1.89098995e-02, 1.11235003e-03, 1.11235003e-03, 0.,
          6.67408016e-03, 2.22469005e-03, 3.33704008e-03, 3.33704008e-03,
          1.11235003e-03, 6.67408016e-03, 2.22469005e-03, 5.56174014e-03,
          2.22469005e-03, 3.33704008e-03, 4.44938987e-03, 5.56174014e-03,
          8.89877975e-03, 8.89877975e-03, 2.22469005e-03, 1.11235003e-03,
          2.22469005e-03, 4.44938987e-03, 4.44938987e-03, 6.67408016e-03,
          2.22469005e-03, 5.56174014e-03, 6.67408016e-03, 6.67408016e-03,
          2.22469005e-03, 5.56174014e-03, 4.44938987e-03 ]
      - [ 2.61323992e-03, 4.35539987e-03, 3.48431990e-03, 6.96863979e-03,
          6.96863979e-03, 1.74215995e-03, 5.22647984e-03, 6.96863979e-03,
          9.58187971e-03, 8.71079974e-03, 2.61323992e-03, 4.35539987e-03,
          8.71079974e-04, 6.09755982e-03, 7.83971976e-03, 1.74215995e-03,
          1.39373001e-02, 7.83971976e-03, 5.22647984e-03, 6.09755982e-03,
          6.09755982e-03, 2.61323992e-03, 6.09755982e-03, 9.58187971e-03,
          3.48431990e-03, 5.22647984e-03, 8.71079974e-04, 5.22647984e-03,
          9.58187971e-03, 1.74215995e-03, 4.35539987e-03, 5.22647984e-03,
          7.83971976e-03, 6.09755982e-03, 3.48431990e-03, 2.61323992e-03,
          4.35539987e-03, 1.04529997e-02, 2.61323992e-03, 4.35539987e-03,
          4.35539987e-03, 8.71079974e-04, 2.61323992e-03, 5.22647984e-03,
          5.22647984e-03, 4.35539987e-03, 2.61323992e-03, 6.09755982e-03,
          2.61323992e-03, 1.74215995e-03, 2.61323992e-03, 1.74215995e-03,
          7.83971976e-03, 6.96863979e-03, 0., 3.48431990e-03,
          4.35539987e-03, 6.09755982e-03, 2.61323992e-03, 1.74215995e-03,
          3.48431990e-03, 6.96863979e-03, 6.96863979e-03, 3.48431990e-03,
          6.09755982e-03, 2.61323992e-03, 2.61323992e-03, 3.48431990e-03,
          3.48431990e-03, 6.09755982e-03, 4.35539987e-03, 3.48431990e-03,
          4.35539987e-03, 7.83971976e-03, 5.22647984e-03, 8.71079974e-04,
          2.61323992e-03, 8.71079974e-04, 1.04529997e-02, 7.83971976e-03,
          9.58187971e-03, 5.22647984e-03, 3.48431990e-03, 2.61323992e-03,
          1.04529997e-02, 5.22647984e-03, 2.61323992e-03, 9.58187971e-03,
          2.61323992e-03, 4.35539987e-03, 9.58187971e-03, 6.96863979e-03,
          7.83971976e-03, 3.48431990e-03, 3.48431990e-03, 5.22647984e-03,
          3.48431990e-03, 0., 8.71079974e-04, 4.35539987e-03,
          6.09755982e-03, 6.09755982e-03, 7.83971976e-03, 6.96863979e-03,
          3.48431990e-03, 4.35539987e-03, 3.48431990e-03, 7.83971976e-03,
          4.35539987e-03, 6.09755982e-03, 1.74215995e-03, 3.48431990e-03,
          9.58187971e-03, 5.22647984e-03, 4.35539987e-03, 2.61323992e-03,
          4.35539987e-03, 4.35539987e-03, 3.48431990e-03, 7.83971976e-03,
          8.71079974e-03, 4.35539987e-03, 6.96863979e-03, 1.74215995e-03,
          1.74215995e-03, 7.83971976e-03, 6.09755982e-03, 6.09755982e-03,
          6.96863979e-03, 6.96863979e-03, 5.22647984e-03, 5.22647984e-03,
          4.35539987e-03, 4.35539987e-03, 8.71079974e-03, 8.71079974e-04,
          6.96863979e-03, 4.35539987e-03, 6.96863979e-03, 2.61323992e-03,
          4.35539987e-03, 6.09755982e-03, 6.09755982e-03, 6.09755982e-03,
          2.61323992e-03, 1.74215995e-03, 1.74215995e-03, 6.96863979e-03,
          4.35539987e-03, 6.09755982e-03, 8.71079974e-04, 6.09755982e-03,
          5.22647984e-03, 2.61323992e-03, 2.61323992e-03, 1.21951001e-02,
          1.56794004e-02, 8.71079974e-04, 4.35539987e-03, 2.61323992e-03,
          2.61323992e-03, 3.48431990e-03, 7.83971976e-03, 2.61323992e-03,
          1.74215995e-03, 8.71079974e-04, 5.22647984e-03, 3.48431990e-03,
          2.61323992e-03, 6.96863979e-03, 2.61323992e-03, 1.74215995e-03,
          1.39373001e-02, 3.48431990e-03, 6.09755982e-03, 6.09755982e-03,
          6.09755982e-03, 6.09755982e-03, 6.09755982e-03, 5.22647984e-03,
          3.48431990e-03, 8.71079974e-04, 7.83971976e-03, 3.48431990e-03,
          6.96863979e-03, 1.04529997e-02, 1.21951001e-02, 4.35539987e-03,
          3.48431990e-03, 0., 6.96863979e-03, 5.22647984e-03,
          3.48431990e-03, 2.61323992e-03, 9.58187971e-03, 6.96863979e-03,
          6.09755982e-03, 7.83971976e-03, 6.96863979e-03, 3.48431990e-03,
          4.41695983e-03, 5.30035002e-03, 1.76678004e-03, 1.32509004e-02,
          4.41695983e-03, 5.30035002e-03, 2.65017990e-03, 8.83391965e-03,
          3.53357010e-03, 7.95053039e-03, 8.83392000e-04, 2.65017990e-03,
          2.65017990e-03, 8.83391965e-03, 6.18375000e-03, 3.53357010e-03,
          7.06714019e-03, 7.06714019e-03, 3.53357010e-03, 1.76678002e-02,
          9.71730985e-03, 7.06714019e-03, 4.41695983e-03, 6.18375000e-03,
          3.53357010e-03, 6.18375000e-03, 4.41695983e-03, 6.18375000e-03,
          1.76678004e-03, 7.06714019e-03, 7.06714019e-03, 5.30035002e-03,
          5.30035002e-03, 4.41695983e-03, 5.30035002e-03, 3.53357010e-03,
          5.30035002e-03, 3.53357010e-03, 4.41695983e-03, 2.65017990e-03,
          4.41695983e-03, 8.83392000e-04, 4.41695983e-03, 2.65017990e-03,
          6.18375000e-03, 8.83392000e-04, 5.30035002e-03, 7.06714019e-03,
          2.65017990e-03, 6.18375000e-03, 3.53357010e-03, 1.76678004e-03,
          5.30035002e-03, 1.76678004e-03, 1.76678004e-03, 6.18375000e-03,
          6.18375000e-03, 5.30035002e-03, 4.41695983e-03, 0.,
          3.53357010e-03, 4.41695983e-03, 7.95053039e-03, 6.18375000e-03,
          6.18375000e-03, 1.76678004e-03, 1.76678004e-03, 8.83392000e-04,
          1.06007000e-02, 8.83391965e-03, 2.65017990e-03, 1.06007000e-02,
          6.18375000e-03, 1.76678004e-03, 7.06714019e-03, 4.41695983e-03,
          3.53357010e-03, 1.76678004e-03, 7.06714019e-03, 4.41695983e-03,
          7.06714019e-03, 2.65017990e-03, 5.30035002e-03, 8.83392000e-04,
          7.95053039e-03, 6.18375000e-03, 3.53357010e-03, 1.23675000e-02,
          5.30035002e-03, 2.65017990e-03, 5.30035002e-03, 6.18375000e-03,
          1.14840996e-02, 4.41695983e-03, 2.65017990e-03, 6.18375000e-03,
          5.30035002e-03, 2.65017990e-03, 5.30035002e-03, 4.41695983e-03,
          3.53357010e-03, 2.65017990e-03, 4.41695983e-03, 5.30035002e-03,
          8.83392000e-04, 6.18375000e-03, 7.06714019e-03, 1.06007000e-02,
          5.30035002e-03, 6.18375000e-03, 2.65017990e-03, 5.30035002e-03,
          9.71730985e-03, 5.30035002e-03, 1.76678004e-03, 7.06714019e-03,
          4.41695983e-03, 6.18375000e-03, 7.06714019e-03, 5.30035002e-03,
          7.95053039e-03, 5.30035002e-03, 3.53357010e-03, 8.83392000e-04,
          4.41695983e-03, 1.23675000e-02, 5.30035002e-03, 1.76678004e-03,
          5.30035002e-03, 4.41695983e-03, 4.41695983e-03, 8.83392000e-04,
          9.71730985e-03, 5.30035002e-03, 2.65017990e-03, 2.65017990e-03,
          1.14840996e-02, 4.41695983e-03, 6.18375000e-03, 0.,
          1.76678004e-03, 5.30035002e-03, 3.53357010e-03, 7.06714019e-03,
          0., 3.53357010e-03, 8.83392000e-04, 7.06714019e-03,
          2.65017990e-03, 1.76678004e-03, 2.65017990e-03, 9.71730985e-03,
          1.59010999e-02, 3.53357010e-03, 2.65017990e-03, 3.53357010e-03,
          3.53357010e-03, 0., 4.41695983e-03, 4.41695983e-03,
          9.71730985e-03, 2.65017990e-03, 6.18375000e-03, 5.30035002e-03,
          9.71730985e-03, 1.76678004e-03, 9.71730985e-03, 1.76678004e-03,
          2.65017990e-03, 6.18375000e-03, 1.76678004e-03, 2.65017990e-03,
          1.06007000e-02, 7.06714019e-03, 4.41695983e-03, 6.18375000e-03,
          1.06007000e-02, 5.30035002e-03, 5.30035002e-03, 5.30035002e-03,
          4.41695983e-03, 2.65017990e-03, 6.18375000e-03, 5.30035002e-03,
          2.65017990e-03, 5.30035002e-03, 8.83391965e-03, 9.71730985e-03,
          3.53357010e-03, 2.65017990e-03, 5.30035002e-03, 6.18375000e-03,
          8.83392000e-04, 8.83392000e-04, 8.83392000e-04, 5.30035002e-03,
          4.41695983e-03, 3.53357010e-03, 6.18375000e-03, 3.53357010e-03,
          3.64166009e-03, 2.91332998e-03, 2.18500011e-03, 9.46831983e-03,
          2.18500011e-03, 8.01165029e-03, 2.91332998e-03, 8.73999018e-03,
          8.01165029e-03, 7.28332018e-03, 1.45665999e-03, 7.28331972e-04,
          2.18500011e-03, 7.28332018e-03, 8.73999018e-03, 7.28331972e-04,
          1.23816002e-02, 2.18500011e-03, 4.36998997e-03, 1.45665999e-03,
          1.23816002e-02, 4.36998997e-03, 7.28332018e-03, 6.55499008e-03,
          3.64166009e-03, 3.64166009e-03, 2.18500011e-03, 3.64166009e-03,
          5.82665997e-03, 4.36998997e-03, 6.55499008e-03, 5.82665997e-03,
          2.91332998e-03, 5.09832986e-03, 2.18500011e-03, 5.82665997e-03,
          4.36998997e-03, 4.36998997e-03, 5.82665997e-03, 3.64166009e-03,
          3.64166009e-03, 7.28331972e-04, 6.55499008e-03, 1.45665999e-03,
          8.73999018e-03, 2.18500011e-03, 1.45665999e-03, 5.09832986e-03,
          2.91332998e-03, 2.91332998e-03, 4.36998997e-03, 0.,
          8.73999018e-03, 5.09832986e-03, 0., 5.09832986e-03,
          2.18500011e-03, 1.38382996e-02, 1.45665999e-03, 1.45665999e-03,
          4.36998997e-03, 5.09832986e-03, 6.55499008e-03, 2.91332998e-03,
          8.73999018e-03, 3.64166009e-03, 0., 5.82665997e-03,
          5.09832986e-03, 3.64166009e-03, 7.28332018e-03, 8.73999018e-03,
          2.91332998e-03, 5.82665997e-03, 4.36998997e-03, 2.91332998e-03,
          4.36998997e-03, 1.45665999e-03, 5.09832986e-03, 1.45665999e-03,
          6.55499008e-03, 5.09832986e-03, 5.82665997e-03, 7.28331972e-04,
          7.28332018e-03, 2.91332998e-03, 1.45665999e-03, 8.01165029e-03,
          8.01165029e-03, 3.64166009e-03, 7.28331972e-04, 3.64166009e-03,
          1.45666003e-02, 6.55499008e-03, 6.55499008e-03, 2.91332998e-03,
          6.55499008e-03, 1.45665999e-03, 5.82665997e-03, 2.91332998e-03,
          9.46831983e-03, 4.36998997e-03, 5.82665997e-03, 5.09832986e-03,
          3.64166009e-03, 4.36998997e-03, 7.28332018e-03, 2.91332998e-03,
          3.64166009e-03, 6.55499008e-03, 5.09832986e-03, 5.09832986e-03,
          1.16533004e-02, 4.36998997e-03, 2.91332998e-03, 5.82665997e-03,
          1.09249996e-02, 8.01165029e-03, 9.46831983e-03, 5.82665997e-03,
          3.64166009e-03, 2.18500011e-03, 4.36998997e-03, 1.45665999e-03,
          4.36998997e-03, 1.01966998e-02, 5.82665997e-03, 5.09832986e-03,
          4.36998997e-03, 5.09832986e-03, 5.09832986e-03, 3.64166009e-03,
          7.28332018e-03, 5.09832986e-03, 2.91332998e-03, 0.,
          9.46831983e-03, 5.82665997e-03, 1.45665999e-03, 1.45665999e-03,
          1.45665999e-03, 7.28332018e-03, 4.36998997e-03, 8.73999018e-03,
          2.18500011e-03, 2.18500011e-03, 3.64166009e-03, 9.46831983e-03,
          2.18500011e-03, 7.28331972e-04, 5.09832986e-03, 1.23816002e-02,
          5.09832986e-03, 8.01165029e-03, 2.18500011e-03, 8.01165029e-03,
          6.55499008e-03, 2.91332998e-03, 6.55499008e-03, 3.64166009e-03,
          5.09832986e-03, 1.45665999e-03, 1.01966998e-02, 4.36998997e-03,
          5.82665997e-03, 2.91332998e-03, 9.46831983e-03, 5.09832986e-03,
          8.01165029e-03, 5.82665997e-03, 5.09832986e-03, 2.91332998e-03,
          7.28332018e-03, 3.64166009e-03, 2.18500011e-03, 5.09832986e-03,
          8.01165029e-03, 5.09832986e-03, 4.36998997e-03, 8.01165029e-03,
          4.36998997e-03, 1.45665999e-03, 1.16533004e-02, 2.91332998e-03,
          4.36998997e-03, 4.36998997e-03, 1.31099997e-02, 3.64166009e-03,
          3.64166009e-03, 2.18500011e-03, 2.91332998e-03, 3.64166009e-03,
          1.01966998e-02, 4.36998997e-03, 6.55499008e-03, 2.91332998e-03,
          9.46831983e-03, 5.09832986e-03, 7.28332018e-03, 5.09832986e-03,
          2.61010993e-02, 2.44697998e-03, 0., 4.89395997e-03,
          2.44697998e-03, 1.63131999e-03, 4.07830020e-03, 2.44697998e-03,
          3.26263998e-03, 1.22349001e-02, 2.44697998e-03, 7.34094996e-03,
          2.44697998e-03, 4.07830020e-03, 5.70962019e-03, 1.63131999e-03,
          9.78793018e-03, 7.34094996e-03, 3.26263998e-03, 4.89395997e-03,
          3.26263998e-03, 1.63131999e-03, 5.70962019e-03, 4.07830020e-03,
          4.89395997e-03, 1.63131999e-03, 1.63131999e-03, 4.07830020e-03,
          4.89395997e-03, 1.63131999e-03, 3.18108015e-02, 6.52529020e-03,
          3.26263998e-03, 2.44697998e-03, 3.26263998e-03, 6.52529020e-03,
          4.07830020e-03, 5.70962019e-03, 2.44697998e-03, 3.26263998e-03,
          2.44697998e-03, 8.15660984e-04, 5.70962019e-03, 4.89395997e-03,
          6.52529020e-03, 8.15660984e-04, 1.63131999e-03, 5.70962019e-03,
          1.63131999e-03, 7.34094996e-03, 3.26263998e-03, 8.15660984e-04,
          4.07830020e-03, 3.26263998e-03, 8.15660984e-04, 2.44697998e-03,
          2.44697998e-03, 1.54975997e-02, 2.44697998e-03, 2.44697998e-03,
          1.30506000e-02, 2.44697998e-03, 3.26263998e-03, 4.89395997e-03,
          1.06036002e-02, 8.15660984e-04, 1.63131999e-03, 3.26263998e-03,
          2.44697998e-03, 2.44697998e-03, 3.26263998e-03, 9.78793018e-03,
          5.70962019e-03, 4.89395997e-03, 8.97227041e-03, 2.44697998e-03,
          2.44697998e-03, 0., 8.15660972e-03, 3.26263998e-03,
          9.78793018e-03, 2.44697998e-03, 4.07830020e-03, 1.63131999e-03,
          6.52529020e-03, 4.89395997e-03, 4.89395997e-03, 8.15660972e-03,
          1.63131999e-03, 0., 5.70962019e-03, 3.26263998e-03,
          1.22349001e-02, 3.26263998e-03, 4.07830020e-03, 8.15660972e-03,
          1.14192003e-02, 1.63131999e-03, 1.63131999e-03, 2.44697998e-03,
          1.38662001e-02, 1.63131999e-03, 5.70962019e-03, 3.26263998e-03,
          8.15660984e-04, 1.63131999e-03, 4.07830020e-03, 1.63131999e-03,
          4.07830020e-03, 4.07830020e-03, 3.26263998e-03, 3.26263998e-03,
          1.22349001e-02, 1.63131999e-03, 4.07830020e-03, 1.71288997e-02,
          2.36542001e-02, 1.63131999e-03, 8.15660972e-03, 4.07830020e-03,
          7.34094996e-03, 3.26263998e-03, 1.63131999e-03, 0.,
          4.07830020e-03, 7.34094996e-03, 2.44697998e-03, 0.,
          1.63131999e-03, 4.89395997e-03, 6.52529020e-03, 3.26263998e-03,
          9.78793018e-03, 1.14192003e-02, 4.89395997e-03, 1.63131999e-03,
          9.78793018e-03, 6.52529020e-03, 4.07830020e-03, 8.15660984e-04,
          6.52529020e-03, 3.26263998e-03, 5.70962019e-03, 7.34094996e-03,
          4.07830020e-03, 3.26263998e-03, 2.44697998e-03, 7.34094996e-03,
          8.15660972e-03, 8.15660984e-04, 7.34094996e-03, 4.07830020e-03,
          2.36542001e-02, 4.07830020e-03, 1.63131999e-03, 3.26263998e-03,
          1.30506000e-02, 1.63131999e-03, 1.14192003e-02, 8.15660984e-04,
          3.26263998e-03, 8.15660984e-04, 5.70962019e-03, 4.89395997e-03,
          1.71288997e-02, 1.63131999e-03, 7.34094996e-03, 1.63131999e-03,
          4.07830020e-03, 1.95758995e-02, 0., 4.07830020e-03,
          1.63131999e-03, 4.07830020e-03, 7.34094996e-03, 8.15660984e-04,
          4.89395997e-03, 4.89395997e-03, 4.89395997e-03, 4.07830020e-03,
          5.70962019e-03, 4.89395997e-03, 6.52529020e-03, 2.44697998e-03,
          3.26263998e-03, 5.70962019e-03, 1.30506000e-02, 8.15660984e-04,
          4.89395997e-03, 1.63131999e-03, 3.26263998e-03, 1.63131999e-03,
          4.89395997e-03, 2.44697998e-03, 6.52529020e-03, 2.44697998e-03,
          8.97227041e-03, 4.07830020e-03, 3.26263998e-03, 1.63131999e-03,
          3.67074013e-02, 3.33704008e-03, 1.11235003e-03, 2.22469005e-03,
          3.33704008e-03, 2.22469005e-03, 0., 4.44938987e-03,
          3.33704008e-03, 7.78642995e-03, 2.22469005e-03, 5.56174014e-03,
          4.44938987e-03, 2.22469005e-03, 8.89877975e-03, 1.11235003e-03,
          1.11234998e-02, 4.44938987e-03, 6.67408016e-03, 5.56174014e-03,
          7.78642995e-03, 1.11235003e-03, 4.44938987e-03, 1.11235003e-03,
          6.67408016e-03, 1.11235003e-03, 6.67408016e-03, 4.44938987e-03,
          6.67408016e-03, 7.78642995e-03, 1.44605003e-02, 2.22469005e-03,
          1.44605003e-02, 4.44938987e-03, 4.44938987e-03, 6.67408016e-03,
          2.22469005e-03, 1.11235003e-03, 5.56174014e-03, 1.11235003e-03,
          6.67408016e-03, 4.44938987e-03, 4.44938987e-03, 3.33704008e-03,
          2.22469005e-03, 1.11235003e-03, 0., 6.67408016e-03,
          1.11235003e-03, 7.78642995e-03, 2.22469005e-03, 1.11235003e-03,
          4.44938987e-03, 1.11235003e-03, 0., 4.44938987e-03,
          4.44938987e-03, 7.78642995e-03, 3.33704008e-03, 0.,
          1.22357998e-02, 6.67408016e-03, 1.11235003e-03, 4.44938987e-03,
          8.89877975e-03, 1.11235003e-03, 5.56174014e-03, 2.22469005e-03,
          1.11235003e-03, 1.44605003e-02, 5.56174014e-03, 3.33704008e-03,
          1.11235003e-03, 2.22469005e-03, 0., 1.11235003e-03, 0.,
          1.11235003e-03, 6.67408016e-03, 3.33704008e-03, 1.11235003e-03,
          2.22469005e-03, 1.11235003e-03, 4.44938987e-03, 8.89877975e-03,
          2.22469005e-03, 0., 5.56174014e-03, 1.11235003e-03,
          2.22469005e-03, 6.67408016e-03, 4.44938987e-03, 7.78642995e-03,
          1.11235003e-03, 3.33704008e-03, 4.44938987e-03, 4.44938987e-03,
          3.33704008e-03, 5.56174014e-03, 4.44938987e-03, 1.66852009e-02,
          2.22469005e-03, 2.22469005e-03, 5.56174014e-03, 4.44938987e-03,
          3.33704008e-03, 1.00111002e-02, 6.67408016e-03, 2.22469005e-03,
          1.11235003e-03, 1.11235003e-03, 3.33704008e-03, 7.78642995e-03,
          7.78642995e-03, 3.33704008e-03, 2.55839992e-02, 4.44938987e-02,
          5.56174014e-03, 5.56174014e-03, 6.67408016e-03, 6.67408016e-03,
          1.11235003e-03, 2.22469005e-03, 3.33704008e-03, 7.78642995e-03,
          5.56174014e-03, 7.78642995e-03, 5.56174014e-03, 3.33704008e-03,
          1.11235003e-03, 1.22357998e-02, 4.44938987e-03, 2.22469005e-03,
          3.33704008e-03, 4.44938987e-03, 5.56174014e-03, 8.89877975e-03,
          1.11235003e-03, 3.33704008e-03, 4.44938987e-03, 2.22469005e-03,
          5.56174014e-03, 3.33704008e-03, 4.44938987e-03, 2.22469005e-03,
          1.11235003e-03, 2.22469005e-03, 2.22469005e-03, 5.56174014e-03,
          4.44938987e-03, 5.56174014e-03, 4.44938987e-03, 1.44605003e-02,
          5.56174014e-03, 3.33704008e-03, 5.56174014e-03, 4.44938987e-03,
          1.11235003e-03, 1.00111002e-02, 4.44938987e-03, 2.22469005e-03,
          4.44938987e-03, 4.44938987e-03, 0., 3.78197990e-02,
          1.11235003e-03, 7.78642995e-03, 2.22469005e-03, 2.22469005e-03,
          1.89098995e-02, 1.11235003e-03, 1.11235003e-03, 0.,
          6.67408016e-03, 2.22469005e-03, 3.33704008e-03, 3.33704008e-03,
          1.11235003e-03, 6.67408016e-03, 2.22469005e-03, 5.56174014e-03,
          2.22469005e-03, 3.33704008e-03, 4.44938987e-03, 5.56174014e-03,
          8.89877975e-03, 8.89877975e-03, 2.22469005e-03, 1.11235003e-03,
          2.22469005e-03, 4.44938987e-03, 4.44938987e-03, 6.67408016e-03,
          2.22469005e-03, 5.56174014e-03, 6.67408016e-03, 6.67408016e-03,
          2.22469005e-03, 5.56174014e-03, 4.44938987e-03, 3.75390984e-02,
          3.12825991e-03, 0., 7.29927002e-03, 3.12825991e-03,
          2.08550994e-03, 5.21375984e-03, 3.12825991e-03, 9.38478019e-03,
          8.34202021e-03, 5.21375984e-03, 3.12825991e-03, 5.21375984e-03,
          5.21375984e-03, 1.25129996e-02, 3.12825991e-03, 5.21375984e-03,
          1.04275001e-02, 3.12825991e-03, 6.25651982e-03, 3.12825991e-03,
          5.21375984e-03, 5.21375984e-03, 7.29927002e-03, 8.34202021e-03,
          6.25651982e-03, 2.08550994e-03, 1.04274997e-03, 3.12825991e-03,
          5.21375984e-03, 6.25651982e-03, 3.12825991e-03, 6.25651982e-03,
          4.17101011e-03, 2.08550994e-03, 7.29927002e-03, 2.08550994e-03,
          2.08550994e-03, 2.08550994e-03, 4.17101011e-03, 0.,
          1.04274997e-03, 1.04274997e-03, 1.04274997e-03, 1.04274997e-03,
          0., 1.04274997e-03, 5.21375984e-03, 2.08550994e-03,
          4.17101011e-03, 2.08550994e-03, 1.04274997e-03, 7.29927002e-03,
          6.25651982e-03, 0., 7.29927002e-03, 2.08550994e-03,
          8.34202021e-03, 1.04274997e-03, 0., 1.35557996e-02,
          1.04274997e-03, 5.21375984e-03, 4.17101011e-03, 3.12825991e-03,
          3.12825991e-03, 8.34202021e-03, 1.04274997e-03, 1.04274997e-03,
          6.25651982e-03, 4.17101011e-03, 8.34202021e-03, 1.14703001e-02,
          5.21375984e-03, 2.08550994e-03, 2.08550994e-03, 5.21375984e-03,
          0., 1.25129996e-02, 2.08550994e-03, 3.12825991e-03,
          5.21375984e-03, 2.08550994e-03, 6.25651982e-03, 7.29927002e-03,
          4.17101011e-03, 1.04274997e-03, 0., 0., 3.12825991e-03,
          3.12825991e-03, 3.12825991e-03, 1.14703001e-02, 4.17101011e-03,
          3.12825991e-03, 7.29927002e-03, 1.04274997e-03, 2.08550994e-03,
          0., 4.17101011e-03, 1.45985000e-02, 1.14703001e-02,
          5.21375984e-03, 4.17101011e-03, 1.04274997e-03, 8.34202021e-03,
          6.25651982e-03, 8.34202021e-03, 6.25651982e-03, 3.12825991e-03,
          5.21375984e-03, 5.21375984e-03, 6.25651982e-03, 3.12825991e-03,
          4.17101011e-03, 8.34202021e-03, 3.33680995e-02, 7.29927002e-03,
          4.17101011e-03, 2.08550994e-03, 8.34202021e-03, 5.21375984e-03,
          1.04274997e-03, 3.12825991e-03, 4.17101011e-03, 4.17101011e-03,
          7.29927002e-03, 1.04274997e-03, 2.08550994e-03, 4.17101011e-03,
          8.34202021e-03, 5.21375984e-03, 1.04274997e-03, 5.21375984e-03,
          1.04274997e-03, 1.04274997e-03, 1.66839994e-02, 5.21375984e-03,
          5.21375984e-03, 4.17101011e-03, 2.08550994e-03, 5.21375984e-03,
          4.17101011e-03, 4.17101011e-03, 2.08550994e-03, 1.04274997e-03,
          2.08550994e-03, 2.08550994e-03, 2.08550994e-03, 2.08550994e-03,
          1.35557996e-02, 1.04274997e-03, 9.38478019e-03, 5.21375984e-03,
          5.21375984e-03, 4.17101011e-03, 8.34202021e-03, 2.08550994e-03,
          4.17101011e-03, 4.17101011e-03, 6.25651982e-03, 3.12825991e-03,
          1.04275001e-02, 1.04274997e-03, 2.71115992e-02, 2.08550994e-03,
          6.25651982e-03, 7.29927002e-03, 3.12825991e-03, 1.25129996e-02,
          3.12825991e-03, 0., 2.08550994e-03, 6.25651982e-03,
          4.17101011e-03, 4.17101011e-03, 2.08550994e-03, 0.,
          6.25651982e-03, 3.12825991e-03, 3.12825991e-03, 3.12825991e-03,
          9.38478019e-03, 2.08550994e-03, 5.21375984e-03, 6.25651982e-03,
          1.77267995e-02, 3.12825991e-03, 4.17101011e-03, 1.04274997e-03,
          6.25651982e-03, 3.12825991e-03, 1.04274997e-03, 1.04274997e-03,
          1.04275001e-02, 1.04275001e-02, 2.08550994e-03, 1.04275001e-02,
          6.25651982e-03, 7.29927002e-03 ]
      - [ 0., 3.40136001e-03, 0., 0., 6.80272002e-03, 0., 0.,
          3.40136001e-03, 1.36054000e-02, 0., 3.40136001e-03,
          3.40136001e-03, 6.80272002e-03, 3.40136001e-03, 6.80272002e-03,
          0., 0., 3.40136001e-03, 3.40136001e-03, 0., 6.80272002e-03,
          3.40136001e-03, 6.80272002e-03, 1.02041001e-02, 1.02041001e-02,
          3.40136001e-03, 6.80272002e-03, 6.80272002e-03, 0., 0., 0.,
          3.40136001e-03, 3.40136001e-03, 3.40136001e-03, 3.40136001e-03,
          3.40136001e-03, 0., 0., 0., 0., 6.80272002e-03, 3.40136001e-03,
          3.40136001e-03, 6.80272002e-03, 3.40136001e-03, 1.02041001e-02,
          1.02041001e-02, 3.40136001e-03, 6.80272002e-03, 1.02041001e-02,
          6.80272002e-03, 6.80272002e-03, 3.40136001e-03, 0.,
          6.80272002e-03, 1.70067996e-02, 6.80272002e-03, 0.,
          3.40136001e-03, 6.80272002e-03, 6.80272002e-03, 0.,
          3.40136001e-03, 3.40136001e-03, 0., 1.02041001e-02,
          3.40136001e-03, 1.36054000e-02, 0., 1.02041001e-02,
          1.02041001e-02, 0., 3.40136001e-03, 6.80272002e-03, 0.,
          3.40136001e-03, 3.40136001e-03, 0., 1.02041001e-02,
          3.40136001e-03, 6.80272002e-03, 3.40136001e-03, 1.02041001e-02,
          3.40136001e-03, 1.02041001e-02, 3.40136001e-03, 6.80272002e-03,
          0., 3.40136001e-03, 1.36054000e-02, 3.40136001e-03,
          3.40136001e-03, 0., 6.80272002e-03, 0., 3.40136001e-03, 0.,
          1.36054000e-02, 1.02041001e-02, 3.40136001e-03, 0.,
          6.80272002e-03, 6.80272002e-03, 1.02041001e-02, 6.80272002e-03,
          3.40136001e-03, 0., 3.40136001e-03, 0., 0., 6.80272002e-03,
          6.80272002e-03, 6.80272002e-03, 6.80272002e-03, 1.36054000e-02,
          3.40136001e-03, 3.40136001e-03, 3.40136001e-03, 1.02041001e-02,
          6.80272002e-03, 2.04082001e-02, 6.80272002e-03, 0.,
          1.70067996e-02, 6.80272002e-03, 1.02041001e-02, 3.40136001e-03,
          3.40136001e-03, 0., 6.80272002e-03, 3.40136001e-03,
          6.80272002e-03, 1.02041001e-02, 0., 0., 3.40136001e-03,
          3.40136001e-03, 6.80272002e-03, 1.02041001e-02, 1.02041001e-02,
          3.40136001e-03, 3.40136001e-03, 3.40136001e-03, 0.,
          3.40136001e-03, 0., 6.80272002e-03, 3.40136001e-03, 0.,
          1.70067996e-02, 2.38095000e-02, 0., 0., 6.80272002e-03,
          3.40136001e-03, 6.80272002e-03, 3.40136001e-03, 1.70067996e-02,
          3.40136001e-03, 6.80272002e-03, 0., 6.80272002e-03,
          3.40136001e-03, 3.40136001e-03, 3.40136001e-03, 1.36054000e-02,
          2.72109006e-02, 6.80272002e-03, 0., 1.36054000e-02,
          3.40136001e-03, 1.36054000e-02, 0., 0., 6.80272002e-03,
          3.40136001e-03, 0., 1.02041001e-02, 3.40136001e-03, 0.,
          3.40136001e-03, 3.40136001e-03, 3.40136001e-03, 6.80272002e-03,
          3.40136001e-03, 6.80272002e-03, 0., 6.80272002e-03,
          3.40136001e-03, 3.40136001e-03, 6.80272002e-03, 0., 0.,
          3.40136001e-03, 6.80272002e-03, 1.02041001e-02, 0., 0.,
          3.40136001e-03, 1.36054000e-02, 0., 4.16667014e-03,
          2.08332995e-03, 1.04166996e-02, 6.25000009e-03, 1.04166996e-02,
          8.33333004e-03, 6.25000009e-03, 1.04166996e-02, 2.08332995e-03,
          8.33333004e-03, 4.16667014e-03, 0., 8.33333004e-03,
          8.33333004e-03, 2.08332995e-03, 0., 8.33333004e-03,
          1.25000002e-02, 0., 0., 1.04166996e-02, 6.25000009e-03,
          6.25000009e-03, 6.25000009e-03, 8.33333004e-03, 6.25000009e-03,
          6.25000009e-03, 1.04166996e-02, 4.16667014e-03, 0.,
          8.33333004e-03, 6.25000009e-03, 4.16667014e-03, 4.16667014e-03,
          8.33333004e-03, 2.08332995e-03, 6.25000009e-03, 4.16667014e-03,
          1.04166996e-02, 1.04166996e-02, 2.08332995e-03, 6.25000009e-03,
          0., 4.16667014e-03, 0., 8.33333004e-03, 6.25000009e-03,
          4.16667014e-03, 6.25000009e-03, 2.08332995e-03, 2.08332995e-03,
          0., 4.16667014e-03, 8.33333004e-03, 6.25000009e-03,
          4.16667014e-03, 2.08332995e-03, 6.25000009e-03, 4.16667014e-03,
          2.08332995e-03, 6.25000009e-03, 8.33333004e-03, 6.25000009e-03,
          0., 2.08332995e-03, 6.25000009e-03, 8.33333004e-03,
          2.08332995e-03, 4.16667014e-03, 6.25000009e-03, 6.25000009e-03,
          4.16667014e-03, 4.16667014e-03, 6.25000009e-03, 0.,
          4.16667014e-03, 0., 4.16667014e-03, 6.25000009e-03,
          6.25000009e-03, 0., 0., 6.25000009e-03, 2.08332995e-03,
          6.25000009e-03, 0., 4.16667014e-03, 6.25000009e-03,
          6.25000009e-03, 1.04166996e-02, 4.16667014e-03, 2.08332995e-03,
          4.16667014e-03, 2.08332995e-03, 6.25000009e-03, 2.08332995e-03,
          2.08332995e-03, 4.16667014e-03, 6.25000009e-03, 2.08332995e-03,
          0., 4.16667014e-03, 4.16667014e-03, 4.16667014e-03,
          2.08332995e-03, 2.08332995e-03, 6.25000009e-03, 1.25000002e-02,
          8.33333004e-03, 6.25000009e-03, 1.25000002e-02, 2.08332995e-03,
          4.16667014e-03, 4.16667014e-03, 0., 4.16667014e-03,
          8.33333004e-03, 8.33333004e-03, 6.25000009e-03, 2.08332995e-03,
          4.16667014e-03, 8.33333004e-03, 4.16667014e-03, 2.08332995e-03,
          4.16667014e-03, 6.25000009e-03, 1.66666992e-02, 6.25000009e-03,
          1.25000002e-02, 4.16667014e-03, 4.16667014e-03, 1.45832999e-02,
          2.08332995e-03, 1.45832999e-02, 6.25000009e-03, 0.,
          6.25000009e-03, 8.33333004e-03, 4.16667014e-03, 4.16667014e-03,
          0., 8.33333004e-03, 4.16667014e-03, 4.16667014e-03,
          6.25000009e-03, 2.08332995e-03, 2.08332995e-03, 6.25000009e-03,
          2.08332995e-03, 4.16667014e-03, 6.25000009e-03, 0.,
          4.16667014e-03, 2.08332995e-03, 4.16667014e-03, 2.08332995e-03,
          6.25000009e-03, 6.25000009e-03, 0., 1.25000002e-02, 0., 0.,
          6.25000009e-03, 0., 1.25000002e-02, 8.33333004e-03,
          1.04166996e-02, 0., 4.16667014e-03, 4.16667014e-03,
          4.16667014e-03, 6.25000009e-03, 1.25000002e-02, 8.33333004e-03,
          4.16667014e-03, 2.08332995e-03, 1.04166996e-02, 8.33333004e-03,
          0., 4.16667014e-03, 6.25000009e-03, 1.25000002e-02,
          8.33333004e-03, 4.16667014e-03, 4.16667014e-03, 4.16667014e-03,
          4.16667014e-03, 4.16667014e-03, 2.08332995e-03, 4.16667014e-03,
          6.25000009e-03, 8.33333004e-03, 4.16667014e-03, 2.08332995e-03,
          2.08332995e-03, 0., 2.08332995e-03, 2.08332995e-03,
          4.16667014e-03, 0., 3.34447995e-03, 6.68895990e-03,
          5.01671992e-03, 3.34447995e-03, 6.68895990e-03, 3.34447995e-03,
          5.01671992e-03, 1.67223997e-03, 0., 8.36119987e-03,
          3.34447995e-03, 3.34447995e-03, 5.01671992e-03, 1.00333998e-02,
          3.34447995e-03, 1.67223997e-03, 3.34447995e-03, 1.33779002e-02,
          0., 5.01671992e-03, 5.01671992e-03, 5.01671992e-03,
          3.34447995e-03, 5.01671992e-03, 6.68895990e-03, 1.17057003e-02,
          5.01671992e-03, 3.34447995e-03, 5.01671992e-03, 0.,
          3.34447995e-03, 5.01671992e-03, 3.34447995e-03, 1.00333998e-02,
          8.36119987e-03, 5.01671992e-03, 0., 1.67223997e-03,
          1.67223997e-03, 1.17057003e-02, 5.01671992e-03, 3.34447995e-03,
          0., 6.68895990e-03, 3.34447995e-03, 8.36119987e-03, 0.,
          1.17057003e-02, 3.34447995e-03, 6.68895990e-03, 1.17057003e-02,
          6.68895990e-03, 1.67223997e-03, 1.17057003e-02, 0.,
          1.00333998e-02, 1.67223997e-03, 5.01671992e-03, 6.68895990e-03,
          1.67223997e-03, 1.17057003e-02, 0., 1.00333998e-02,
          1.67223997e-03, 1.67223997e-03, 6.68895990e-03, 5.01671992e-03,
          6.68895990e-03, 6.68895990e-03, 1.00333998e-02, 6.68895990e-03,
          1.67223997e-03, 3.34447995e-03, 3.34447995e-03, 6.68895990e-03,
          8.36119987e-03, 0., 5.01671992e-03, 5.01671992e-03,
          3.34447995e-03, 6.68895990e-03, 8.36119987e-03, 5.01671992e-03,
          6.68895990e-03, 8.36119987e-03, 5.01671992e-03, 1.00333998e-02,
          8.36119987e-03, 6.68895990e-03, 3.34447995e-03, 3.34447995e-03,
          3.34447995e-03, 3.34447995e-03, 3.34447995e-03, 0.,
          3.34447995e-03, 6.68895990e-03, 3.34447995e-03, 3.34447995e-03,
          1.67223997e-03, 1.67223997e-03, 1.67223997e-03, 5.01671992e-03,
          8.36119987e-03, 3.34447995e-03, 5.01671992e-03, 6.68895990e-03,
          6.68895990e-03, 1.67223997e-03, 3.34447995e-03, 3.34447995e-03,
          1.67223997e-03, 6.68895990e-03, 6.68895990e-03, 3.34447995e-03,
          3.34447995e-03, 3.34447995e-03, 5.01671992e-03, 3.34447995e-03,
          3.34447995e-03, 5.01671992e-03, 8.36119987e-03, 6.68895990e-03,
          5.01671992e-03, 5.01671992e-03, 5.01671992e-03, 6.68895990e-03,
          8.36119987e-03, 3.34447995e-03, 5.01671992e-03, 1.33779002e-02,
          3.34447995e-03, 6.68895990e-03, 6.68895990e-03, 1.67223997e-03,
          0., 1.67223997e-03, 1.00333998e-02, 1.50501998e-02,
          5.01671992e-03, 1.00333998e-02, 0., 1.67223997e-03,
          1.00333998e-02, 8.36119987e-03, 1.17057003e-02, 3.34447995e-03,
          0., 6.68895990e-03, 0., 1.67223997e-03, 0., 5.01671992e-03,
          5.01671992e-03, 3.34447995e-03, 0., 1.00333998e-02,
          5.01671992e-03, 1.33779002e-02, 3.34447995e-03, 8.36119987e-03,
          3.34447995e-03, 0., 1.67223997e-03, 1.67223997e-03,
          3.34447995e-03, 6.68895990e-03, 1.67223997e-03, 0.,
          5.01671992e-03, 1.83946006e-02, 5.01671992e-03, 5.01671992e-03,
          5.01671992e-03, 1.00333998e-02, 1.67223997e-03, 1.00333998e-02,
          3.34447995e-03, 8.36119987e-03, 1.67223997e-03, 6.68895990e-03,
          1.00333998e-02, 5.01671992e-03, 1.67223997e-03, 6.68895990e-03,
          6.68895990e-03, 1.67223997e-03, 6.68895990e-03, 8.36119987e-03,
          3.34447995e-03, 6.68895990e-03, 3.34447995e-03, 8.36119987e-03,
          5.01671992e-03, 1.67223997e-03, 0., 6.68895990e-03,
          3.34447995e-03, 1.67223997e-03, 2.11864011e-03, 2.11864011e-03,
          2.11864011e-03, 2.11864011e-03, 0., 6.35593012e-03,
          4.23729001e-03, 4.23729001e-03, 8.47458001e-03, 0.,
          6.35593012e-03, 8.47458001e-03, 2.11864011e-03, 4.23729001e-03,
          1.27119003e-02, 2.11864011e-03, 0., 8.47458001e-03,
          4.23729001e-03, 0., 2.11864011e-03, 4.23729001e-03,
          2.11864011e-03, 1.05932001e-02, 4.23729001e-03, 1.05932001e-02,
          2.11864011e-03, 6.35593012e-03, 6.35593012e-03, 4.23729001e-03,
          4.23729001e-03, 1.05932001e-02, 4.23729001e-03, 4.23729001e-03,
          0., 1.27119003e-02, 6.35593012e-03, 4.23729001e-03,
          4.23729001e-03, 6.35593012e-03, 1.27119003e-02, 2.11864011e-03,
          4.23729001e-03, 0., 6.35593012e-03, 2.11864011e-03,
          6.35593012e-03, 2.11864011e-03, 0., 6.35593012e-03,
          2.11864011e-03, 0., 4.23729001e-03, 8.47458001e-03, 0.,
          1.05932001e-02, 0., 0., 8.47458001e-03, 2.11864011e-03,
          2.11864011e-03, 2.11864011e-03, 1.48304999e-02, 8.47458001e-03,
          6.35593012e-03, 2.11864011e-03, 6.35593012e-03, 1.05932001e-02,
          4.23729001e-03, 2.11864011e-03, 8.47458001e-03, 2.11864011e-03,
          8.47458001e-03, 4.23729001e-03, 8.47458001e-03, 6.35593012e-03,
          6.35593012e-03, 0., 8.47458001e-03, 0., 6.35593012e-03,
          6.35593012e-03, 2.11864011e-03, 2.11864011e-03, 8.47458001e-03,
          2.11864011e-03, 4.23729001e-03, 6.35593012e-03, 2.11864011e-03,
          6.35593012e-03, 4.23729001e-03, 2.11864011e-03, 2.11864011e-03,
          6.35593012e-03, 2.11864011e-03, 6.35593012e-03, 1.05932001e-02,
          4.23729001e-03, 4.23729001e-03, 1.05932001e-02, 8.47458001e-03,
          2.11864011e-03, 6.35593012e-03, 4.23729001e-03, 2.11864011e-03,
          6.35593012e-03, 0., 8.47458001e-03, 8.47458001e-03,
          6.35593012e-03, 2.11864011e-03, 6.35593012e-03, 2.11864011e-03,
          6.35593012e-03, 6.35593012e-03, 6.35593012e-03, 4.23729001e-03,
          1.27119003e-02, 8.47458001e-03, 8.47458001e-03, 6.35593012e-03,
          4.23729001e-03, 6.35593012e-03, 2.11864011e-03, 2.11864011e-03,
          8.47458001e-03, 4.23729001e-03, 2.11864011e-03, 8.47458001e-03,
          6.35593012e-03, 2.11864011e-03, 6.35593012e-03, 2.11864011e-03,
          1.05932001e-02, 1.48304999e-02, 4.23729001e-03, 2.11864011e-03,
          8.47458001e-03, 8.47458001e-03, 4.23729001e-03, 4.23729001e-03,
          4.23729001e-03, 8.47458001e-03, 2.11864011e-03, 0.,
          1.05932001e-02, 2.11864011e-03, 4.23729001e-03, 2.11864011e-03,
          4.23729001e-03, 4.23729001e-03, 2.11864011e-03, 4.23729001e-03,
          2.11864011e-03, 2.11864011e-03, 2.11864011e-03, 6.35593012e-03,
          0., 1.27119003e-02, 1.48304999e-02, 2.11864011e-03, 0.,
          2.11864011e-03, 2.11864011e-03, 4.23729001e-03, 8.47458001e-03,
          6.35593012e-03, 0., 2.11864011e-03, 4.23729001e-03,
          2.11864011e-03, 0., 4.23729001e-03, 1.27119003e-02,
          4.23729001e-03, 4.23729001e-03, 6.35593012e-03, 1.05932001e-02,
          6.35593012e-03, 2.11864011e-03, 4.23729001e-03, 6.35593012e-03,
          2.33050995e-02, 6.35593012e-03, 4.23729001e-03, 1.48304999e-02,
          0., 2.11864011e-03, 4.23729001e-03, 4.23729001e-03, 0.,
          1.05932001e-02, 6.35593012e-03, 4.23729001e-03, 4.23729001e-03,
          6.35593012e-03, 2.11864011e-03, 4.23729001e-03, 2.11864011e-03,
          0., 2.05339002e-03, 4.10678005e-03, 2.05339002e-03,
          6.16016006e-03, 2.05339002e-03, 1.02669001e-02, 2.05339002e-03,
          1.43737001e-02, 8.21354985e-03, 0., 6.16016006e-03,
          8.21354985e-03, 4.10678005e-03, 0., 1.02669001e-02, 0.,
          2.05339002e-03, 2.05339002e-03, 4.10678005e-03, 4.10678005e-03,
          1.02669001e-02, 1.23202996e-02, 1.02669001e-02, 4.10678005e-03,
          2.05339002e-03, 1.43737001e-02, 2.05339002e-03, 2.05339002e-03,
          2.05339002e-03, 1.23202996e-02, 0., 4.10678005e-03, 0.,
          4.10678005e-03, 6.16016006e-03, 2.05339002e-03, 2.05339002e-03,
          4.10678005e-03, 2.05339002e-03, 6.16016006e-03, 1.23202996e-02,
          6.16016006e-03, 1.02669001e-02, 4.10678005e-03, 4.10678005e-03,
          6.16016006e-03, 2.05339002e-03, 1.02669001e-02, 2.05339002e-03,
          4.10678005e-03, 0., 2.05339002e-03, 8.21354985e-03,
          2.05339002e-03, 1.02669001e-02, 6.16016006e-03, 0.,
          2.05339002e-03, 4.10678005e-03, 2.05339002e-03, 0.,
          6.16016006e-03, 6.16016006e-03, 1.23202996e-02, 4.10678005e-03,
          2.05339002e-03, 4.10678005e-03, 2.05339002e-03, 1.43737001e-02,
          0., 0., 6.16016006e-03, 6.16016006e-03, 4.10678005e-03, 0., 0.,
          2.05339002e-03, 0., 2.05339002e-03, 1.23202996e-02,
          1.02669001e-02, 2.05339002e-03, 8.21354985e-03, 6.16016006e-03,
          8.21354985e-03, 1.02669001e-02, 2.05339002e-03, 1.02669001e-02,
          0., 1.02669001e-02, 4.10678005e-03, 0., 1.43737001e-02,
          4.10678005e-03, 2.05339002e-03, 2.05339002e-03, 6.16016006e-03,
          2.05339002e-03, 6.16016006e-03, 6.16016006e-03, 2.05339002e-03,
          2.05339002e-03, 6.16016006e-03, 6.16016006e-03, 6.16016006e-03,
          6.16016006e-03, 6.16016006e-03, 6.16016006e-03, 6.16016006e-03,
          2.05339002e-03, 2.05339002e-03, 1.02669001e-02, 1.43737001e-02,
          0., 6.16016006e-03, 4.10678005e-03, 0., 1.02669001e-02,
          6.16016006e-03, 6.16016006e-03, 0., 4.10678005e-03,
          6.16016006e-03, 8.21354985e-03, 1.02669001e-02, 6.16016006e-03,
          4.10678005e-03, 6.16016006e-03, 0., 6.16016006e-03,
          6.16016006e-03, 6.16016006e-03, 0., 2.05339002e-03,
          8.21354985e-03, 2.05339002e-03, 2.05339002e-03, 2.05339002e-03,
          2.05339002e-03, 2.05339007e-02, 1.02669001e-02, 6.16016006e-03,
          4.10678005e-03, 1.64270997e-02, 0., 0., 0., 4.10678005e-03,
          6.16016006e-03, 4.10678005e-03, 0., 6.16016006e-03, 0.,
          4.10678005e-03, 4.10678005e-03, 6.16016006e-03, 4.10678005e-03,
          6.16016006e-03, 0., 8.21354985e-03, 6.16016006e-03,
          2.05339002e-03, 6.16016006e-03, 2.05339002e-03, 4.10678005e-03,
          4.10678005e-03, 0., 0., 4.10678005e-03, 0., 4.10678005e-03,
          4.10678005e-03, 8.21354985e-03, 4.10678005e-03, 0., 0.,
          6.16016006e-03, 6.16016006e-03, 8.21354985e-03, 4.10678005e-03,
          0., 1.23202996e-02, 2.25872993e-02, 4.10678005e-03,
          1.02669001e-02, 1.23202996e-02, 6.16016006e-03, 1.02669001e-02,
          2.05339002e-03, 0., 0., 6.16016006e-03, 8.21354985e-03,
          2.05339002e-03, 1.02669001e-02, 4.10678005e-03, 0.,
          8.21354985e-03, 6.16016006e-03, 6.16016006e-03, 2.58398009e-03,
          7.75193982e-03, 5.16796019e-03, 5.16796019e-03, 0.,
          1.29199000e-02, 2.58398009e-03, 1.03358999e-02, 1.03358999e-02,
          5.16796019e-03, 1.29199000e-02, 7.75193982e-03, 2.58398009e-03,
          5.16796019e-03, 7.75193982e-03, 2.58398009e-03, 5.16796019e-03,
          2.58398009e-03, 2.58398009e-03, 0., 5.16796019e-03, 0.,
          1.03358999e-02, 5.16796019e-03, 1.03358999e-02, 1.80878993e-02,
          0., 2.58398009e-03, 2.58398009e-03, 1.29199000e-02,
          7.75193982e-03, 1.03358999e-02, 2.58398009e-03, 7.75193982e-03,
          1.29199000e-02, 2.58398009e-03, 2.58398009e-03, 2.58398009e-03,
          5.16796019e-03, 0., 2.58398009e-03, 5.16796019e-03,
          5.16796019e-03, 1.03358999e-02, 2.58398009e-03, 5.16796019e-03,
          2.58398009e-03, 5.16796019e-03, 5.16796019e-03, 2.58398009e-03,
          2.58398009e-03, 7.75193982e-03, 5.16796019e-03, 0.,
          5.16796019e-03, 7.75193982e-03, 2.58398009e-03, 0.,
          2.58398009e-03, 5.16796019e-03, 2.58398009e-03, 7.75193982e-03,
          5.16796019e-03, 7.75193982e-03, 1.03358999e-02, 0.,
          7.75193982e-03, 2.58398009e-03, 2.58398009e-03, 2.58398009e-03,
          5.16796019e-03, 1.03358999e-02, 7.75193982e-03, 0.,
          2.58398009e-03, 5.16796019e-03, 5.16796019e-03, 0.,
          5.16796019e-03, 5.16796019e-03, 2.58398009e-03, 2.58398009e-03,
          5.16796019e-03, 0., 1.03358999e-02, 7.75193982e-03, 0.,
          7.75193982e-03, 0., 7.75193982e-03, 1.03358999e-02,
          2.58398009e-03, 1.80878993e-02, 7.75193982e-03, 7.75193982e-03,
          5.16796019e-03, 1.55039001e-02, 7.75193982e-03, 5.16796019e-03,
          5.16796019e-03, 7.75193982e-03, 0., 5.16796019e-03,
          5.16796019e-03, 5.16796019e-03, 7.75193982e-03, 0.,
          1.29199000e-02, 2.58398009e-03, 7.75193982e-03, 2.58398009e-03,
          2.58398009e-03, 2.58398009e-03, 0., 5.16796019e-03,
          2.58398009e-03, 2.58398009e-03, 7.75193982e-03, 2.58398009e-03,
          0., 7.75193982e-03, 7.75193982e-03, 0., 0., 0., 1.29199000e-02,
          5.16796019e-03, 5.16796019e-03, 2.58398009e-03, 7.75193982e-03,
          2.58398009e-03, 2.58398009e-03, 5.16796019e-03, 5.16796019e-03,
          2.06717998e-02, 5.16796019e-03, 2.58398009e-03, 2.58398009e-03,
          1.03358999e-02, 5.16796019e-03, 2.58398009e-03, 2.58398009e-03,
          2.58398009e-03, 5.16796019e-03, 0., 7.75193982e-03, 0.,
          7.75193982e-03, 0., 2.58398009e-03, 0., 2.58398009e-03, 0.,
          5.16796019e-03, 0., 2.58398009e-03, 1.80878993e-02, 0.,
          5.16796019e-03, 7.75193982e-03, 2.58398009e-03, 2.58398009e-03,
          0., 0., 0., 1.03358999e-02, 0., 0., 0., 0., 7.75193982e-03,
          5.16796019e-03, 1.29199000e-02, 1.29199000e-02, 0.,
          5.16796019e-03, 5.16796019e-03, 2.58398009e-03, 7.75193982e-03,
          7.75193982e-03, 7.75193982e-03, 5.16796019e-03, 1.03358999e-02,
          5.16796019e-03, 7.75193982e-03, 0., 0., 5.16796019e-03,
          2.58398009e-03, 5.16796019e-03, 5.16796019e-03, 2.58398009e-03,
          1.03358999e-02, 5.16796019e-03, 1.55039001e-02, 2.58398009e-03,
          2.58398009e-03, 5.16796019e-03, 2.58398009e-03, 7.75193982e-03 ]
      - [ 6.66667009e-03, 0., 0., 0., 0., 0., 0., 1.33333001e-02, 0., 0.,
          0., 0., 2.66667008e-02, 1.33333001e-02, 6.66667009e-03, 0., 0.,
          3.33333015e-02, 0., 0., 0., 0., 6.66667009e-03, 0.,
          3.99999991e-02, 0., 0., 0., 0., 1.33333001e-02, 0.,
          6.66667009e-03, 0., 6.66667009e-03, 6.66667009e-03,
          1.33333001e-02, 0., 0., 0., 0., 0., 0., 6.66667009e-03, 0., 0.,
          6.66667009e-03, 0., 0., 0., 2.66667008e-02, 0., 0., 0., 0.,
          1.33333001e-02, 3.33333015e-02, 6.66667009e-03, 0., 0., 0., 0.,
          0., 0., 0., 6.66667009e-03, 0., 3.99999991e-02, 1.33333001e-02,
          6.66667009e-03, 3.33333015e-02, 1.99999996e-02, 6.66667009e-03,
          1.99999996e-02, 0., 0., 0., 6.66667009e-03, 0., 1.33333001e-02,
          0., 6.66667009e-03, 0., 1.33333001e-02, 0., 0., 0.,
          3.33333015e-02, 0., 0., 0., 0., 0., 0., 0., 0., 6.66667009e-03,
          6.66667009e-03, 6.66667009e-03, 6.66667009e-03, 0., 0.,
          6.66667009e-03, 0., 0., 6.66667009e-03, 0., 0., 0., 0.,
          6.66667009e-03, 1.33333001e-02, 1.99999996e-02, 0., 0.,
          1.33333001e-02, 0., 0., 6.66667009e-03, 1.33333001e-02, 0.,
          1.33333001e-02, 0., 6.66667009e-03, 1.33333001e-02, 0., 0., 0.,
          0., 0., 0., 6.66667009e-03, 6.66667009e-03, 6.66667009e-03, 0.,
          0., 6.66667009e-03, 0., 0., 1.33333001e-02, 6.66667009e-03, 0.,
          1.99999996e-02, 0., 0., 6.66667009e-03, 0., 0., 0., 0.,
          6.66667009e-03, 7.33333007e-02, 0., 0., 1.99999996e-02, 0., 0.,
          0., 6.66667009e-03, 6.66667009e-03, 0., 1.33333001e-02,
          1.33333001e-02, 0., 0., 0., 0., 1.99999996e-02, 0., 0.,
          1.33333001e-02, 0., 0., 6.66667009e-03, 0., 0., 0., 0., 0., 0.,
          0., 0., 0., 0., 0., 1.33333001e-02, 0., 0., 0., 0., 0.,
          1.33333001e-02, 6.66667009e-03, 6.66667009e-03, 0.,
          6.66667009e-03, 3.99999991e-02, 0., 6.66667009e-03, 0., 0.,
          1.96849997e-03, 3.93701019e-03, 3.93701019e-03, 0.,
          3.93701019e-03, 1.96849997e-03, 3.93701019e-03, 5.90550993e-03,
          3.93701019e-03, 1.96849997e-03, 5.90550993e-03, 3.93701019e-03,
          5.90550993e-03, 5.90550993e-03, 1.37794996e-02, 7.87402038e-03,
          3.93701019e-03, 0., 5.90550993e-03, 0., 0., 1.96849997e-03,
          5.90550993e-03, 5.90550993e-03, 3.93701019e-03, 1.96849997e-03,
          9.84251965e-03, 0., 7.87402038e-03, 5.90550993e-03, 0.,
          5.90550993e-03, 1.96849997e-03, 1.96849997e-03, 5.90550993e-03,
          1.96849997e-03, 3.93701019e-03, 1.96849997e-03, 5.90550993e-03,
          3.93701019e-03, 1.96849997e-03, 1.96849997e-03, 3.93701019e-03,
          1.96849997e-03, 3.93701019e-03, 5.90550993e-03, 3.93701019e-03,
          5.90550993e-03, 5.90550993e-03, 7.87402038e-03, 5.90550993e-03,
          7.87402038e-03, 7.87402038e-03, 3.93701019e-03, 1.96850002e-02,
          5.90550993e-03, 5.90550993e-03, 1.96849997e-03, 5.90550993e-03,
          5.90550993e-03, 5.90550993e-03, 7.87402038e-03, 5.90550993e-03,
          1.96849997e-03, 7.87402038e-03, 1.77165009e-02, 7.87402038e-03,
          7.87402038e-03, 7.87402038e-03, 1.96849997e-03, 0.,
          3.93701019e-03, 3.93701019e-03, 0., 0., 3.93701019e-03,
          3.93701019e-03, 0., 3.93701019e-03, 1.96849997e-03,
          1.96849997e-03, 5.90550993e-03, 7.87402038e-03, 5.90550993e-03,
          0., 0., 1.77165009e-02, 3.93701019e-03, 1.96849997e-03,
          3.93701019e-03, 3.93701019e-03, 3.93701019e-03, 7.87402038e-03,
          1.96849997e-03, 7.87402038e-03, 0., 2.16534995e-02,
          3.93701019e-03, 3.93701019e-03, 0., 0., 3.93701019e-03, 0.,
          1.96849997e-03, 1.37794996e-02, 3.93701019e-03, 0.,
          5.90550993e-03, 0., 7.87402038e-03, 1.18110003e-02,
          1.57479998e-02, 1.96849997e-03, 1.96849997e-03, 1.96849997e-03,
          1.96849997e-03, 3.93701019e-03, 7.87402038e-03, 7.87402038e-03,
          1.96849997e-03, 3.93701019e-03, 9.84251965e-03, 5.90550993e-03,
          1.77165009e-02, 1.18110003e-02, 7.87402038e-03, 1.96849997e-03,
          1.96849997e-03, 3.93701019e-03, 0., 9.84251965e-03,
          3.93701019e-03, 5.90550993e-03, 0., 1.96849997e-03,
          7.87402038e-03, 1.18110003e-02, 3.93701019e-03, 0.,
          2.16534995e-02, 3.93701019e-03, 3.93701019e-03, 5.90550993e-03,
          1.96849997e-03, 1.37794996e-02, 7.87402038e-03, 9.84251965e-03,
          0., 5.90550993e-03, 3.93701019e-03, 7.87402038e-03,
          1.96849997e-03, 3.93701019e-03, 1.96849997e-03, 0., 0.,
          7.87402038e-03, 9.84251965e-03, 7.87402038e-03, 1.96849997e-03,
          1.18110003e-02, 1.96850002e-02, 0., 1.96849997e-03,
          3.93701019e-03, 1.18110003e-02, 9.84251965e-03, 0.,
          1.96849997e-03, 7.87402038e-03, 7.87402038e-03, 1.37794996e-02,
          0., 3.93701019e-03, 1.96849997e-03, 0., 1.96849997e-03,
          1.18110003e-02, 1.96849997e-03, 1.37794996e-02, 7.87402038e-03,
          5.90550993e-03, 7.87402038e-03, 0., 3.93701019e-03,
          1.96849997e-03, 5.90550993e-03, 3.93701019e-03, 0.,
          7.87402038e-03, 0., 3.93701019e-03, 3.93701019e-03, 0.,
          7.87402038e-03, 3.93701019e-03, 1.96849997e-03, 1.96849997e-03,
          0., 3.93701019e-03, 0., 1.31579004e-02, 2.19297991e-03,
          4.38595982e-03, 2.19297991e-03, 4.38595982e-03, 0.,
          1.09649003e-02, 2.19297991e-03, 2.19297991e-03, 6.57895021e-03,
          2.19297991e-03, 0., 0., 0., 1.09649003e-02, 0., 1.31579004e-02,
          6.57895021e-03, 0., 0., 0., 0., 4.38595982e-03, 1.09649003e-02,
          1.31579004e-02, 4.38595982e-03, 0., 0., 1.09649003e-02,
          2.19297991e-03, 2.19297991e-03, 4.38595982e-03, 4.38595982e-03,
          2.19297991e-03, 8.77192989e-03, 2.19297991e-03, 0.,
          6.57895021e-03, 4.38595982e-03, 6.57895021e-03, 8.77192989e-03,
          2.19297991e-03, 0., 4.38595982e-03, 0., 2.19297991e-03,
          2.19297991e-03, 8.77192989e-03, 1.09649003e-02, 4.38595982e-03,
          2.19297991e-03, 4.38595982e-03, 0., 1.31579004e-02,
          4.38595982e-03, 8.77192989e-03, 4.38595982e-03, 2.19297991e-03,
          4.38595982e-03, 4.38595982e-03, 6.57895021e-03, 6.57895021e-03,
          4.38595982e-03, 4.38595982e-03, 2.19297991e-03, 4.38595982e-03,
          1.97368003e-02, 2.19297991e-03, 1.53508997e-02, 1.09649003e-02,
          0., 6.57895021e-03, 2.19297991e-03, 6.57895021e-03,
          2.19297991e-03, 2.19297991e-03, 0., 1.31579004e-02, 0.,
          2.19297991e-03, 4.38595982e-03, 6.57895021e-03, 2.19297991e-03,
          4.38595982e-03, 0., 4.38595982e-03, 4.38595982e-03, 0.,
          4.38595982e-03, 2.19297991e-03, 4.38595982e-03, 4.38595982e-03,
          0., 2.19297991e-03, 0., 4.38595982e-03, 4.38595982e-03,
          6.57895021e-03, 0., 6.57895021e-03, 8.77192989e-03,
          2.19297991e-03, 2.19297991e-03, 4.38595982e-03, 8.77192989e-03,
          0., 0., 4.38595982e-03, 1.09649003e-02, 4.38595982e-03,
          2.19297991e-03, 0., 4.38595982e-03, 6.57895021e-03, 0.,
          2.19297991e-03, 6.57895021e-03, 1.31579004e-02, 2.19297991e-03,
          1.09649003e-02, 2.19297991e-03, 2.19297991e-03, 2.19297991e-03,
          6.57895021e-03, 1.09649003e-02, 2.19297991e-03, 0., 0., 0.,
          1.97368003e-02, 8.77192989e-03, 8.77192989e-03, 4.38595982e-03,
          4.38595982e-03, 6.57895021e-03, 0., 2.19297991e-03,
          1.09649003e-02, 8.77192989e-03, 6.57895021e-03, 1.31579004e-02,
          2.19297991e-03, 8.77192989e-03, 6.57895021e-03, 4.38595982e-03,
          1.75439008e-02, 2.19297991e-03, 4.38595982e-03, 6.57895021e-03,
          2.41228007e-02, 0., 8.77192989e-03, 1.09649003e-02,
          6.57895021e-03, 2.19297991e-03, 1.53508997e-02, 2.19297991e-03,
          6.57895021e-03, 0., 1.09649003e-02, 2.19297991e-03,
          2.19297991e-03, 4.38595982e-03, 0., 1.31579004e-02,
          1.53508997e-02, 6.57895021e-03, 4.38595982e-03, 1.53508997e-02,
          4.38595982e-03, 4.38595982e-03, 2.19297991e-03, 2.19297991e-03,
          4.38595982e-03, 4.38595982e-03, 2.19297991e-03, 2.19297991e-03,
          2.19297991e-03, 4.38595982e-03, 1.09649003e-02, 6.57895021e-03,
          2.19297991e-03, 2.19297991e-03, 8.77192989e-03, 2.19297991e-03,
          0., 4.38595982e-03, 4.38595982e-03, 4.38595982e-03, 0.,
          8.77192989e-03, 2.19297991e-03, 1.31579004e-02, 6.57895021e-03,
          1.53508997e-02, 0., 4.38595982e-03, 4.38595982e-03,
          8.77192989e-03, 2.03562006e-02, 5.08905994e-03, 2.54452997e-03,
          5.08905994e-03, 1.01781003e-02, 1.27226003e-02, 5.08905994e-03,
          5.08905994e-03, 2.54452997e-03, 0., 7.63359014e-03,
          2.54452997e-03, 7.63359014e-03, 0., 5.08905994e-03,
          2.03562006e-02, 0., 5.08905994e-03, 1.01781003e-02,
          1.52671998e-02, 0., 0., 0., 2.54452997e-03, 7.63359014e-03,
          1.01781003e-02, 5.08905994e-03, 2.54452997e-03, 5.08905994e-03,
          5.08905994e-03, 0., 7.63359014e-03, 0., 2.54452997e-03,
          5.08905994e-03, 5.08905994e-03, 0., 0., 7.63359014e-03, 0., 0.,
          2.54452997e-03, 2.54452997e-03, 0., 0., 7.63359014e-03,
          5.08905994e-03, 7.63359014e-03, 7.63359014e-03, 1.78117007e-02,
          2.54452997e-03, 5.08905994e-03, 0., 5.08905994e-03,
          5.08905994e-03, 7.63359014e-03, 5.08905994e-03, 1.27226003e-02,
          0., 5.08905994e-03, 7.63359014e-03, 1.01781003e-02, 0.,
          5.08905994e-03, 5.08905994e-03, 0., 7.63359014e-03, 0.,
          5.08905994e-03, 1.52671998e-02, 7.63359014e-03, 2.54452997e-03,
          1.01781003e-02, 2.54452997e-03, 2.54452997e-03, 2.54452997e-03,
          5.08905994e-03, 2.54452997e-03, 2.54452997e-03, 2.54452997e-03,
          0., 2.54452997e-03, 2.54452997e-03, 2.54452997e-03,
          2.54452997e-03, 2.54452997e-03, 7.63359014e-03, 5.08905994e-03,
          0., 2.54452997e-03, 7.63359014e-03, 2.54452997e-03,
          2.54452997e-03, 2.54452997e-03, 2.54452997e-03, 7.63359014e-03,
          2.54452997e-03, 0., 7.63359014e-03, 0., 2.54452997e-03,
          1.27226003e-02, 2.54452997e-03, 0., 1.01781003e-02,
          5.08905994e-03, 5.08905994e-03, 0., 7.63359014e-03,
          5.08905994e-03, 1.01781003e-02, 2.29007993e-02, 2.54452997e-03,
          2.54452997e-03, 5.08905994e-03, 0., 0., 5.08905994e-03,
          5.08905994e-03, 2.54452997e-03, 1.52671998e-02, 0.,
          2.54452997e-03, 7.63359014e-03, 2.54452997e-03, 0.,
          2.54452997e-03, 5.08905994e-03, 7.63359014e-03, 2.54452997e-03,
          1.52671998e-02, 2.54452997e-03, 2.54452997e-03, 0., 0.,
          5.08905994e-03, 1.01781003e-02, 2.54452997e-03, 1.01781003e-02,
          7.63359014e-03, 2.54452997e-03, 5.08905994e-03, 2.54452997e-03,
          0., 0., 5.08905994e-03, 1.27226003e-02, 5.08905994e-03,
          7.63359014e-03, 5.08905994e-03, 2.03562006e-02, 2.54452997e-03,
          4.07125019e-02, 2.54452997e-03, 7.63359014e-03, 0.,
          7.63359014e-03, 2.54452997e-03, 0., 7.63359014e-03,
          2.54452997e-03, 2.54452997e-03, 2.54452997e-03, 5.08905994e-03,
          7.63359014e-03, 1.01781003e-02, 1.27226003e-02, 7.63359014e-03,
          1.01781003e-02, 7.63359014e-03, 7.63359014e-03, 0., 0., 0.,
          2.54452997e-03, 1.01781003e-02, 0., 0., 1.27226003e-02,
          7.63359014e-03, 1.27226003e-02, 5.08905994e-03, 0.,
          7.63359014e-03, 5.08905994e-03, 2.54452997e-03, 2.54452997e-03,
          0., 5.08905994e-03, 2.54452997e-03, 0., 7.63359014e-03,
          5.08905994e-03, 2.54452997e-03, 2.54452997e-03, 5.08905994e-03,
          0., 0., 2.54452997e-03, 7.63359014e-03, 5.67010008e-02, 0.,
          2.57731997e-03, 0., 2.57731997e-03, 2.57731997e-03,
          2.57731997e-03, 5.15463995e-03, 0., 1.03093004e-02,
          2.57731997e-03, 0., 7.73196016e-03, 0., 2.57731997e-03,
          5.15463995e-03, 0., 2.31959000e-02, 5.15463995e-03,
          2.31959000e-02, 2.57731997e-03, 1.54638998e-02, 0., 0.,
          7.73196016e-03, 1.03093004e-02, 2.57731997e-03, 0.,
          2.57731997e-03, 0., 0., 0., 5.15463995e-03, 5.15463995e-03, 0.,
          2.57731997e-03, 5.15463995e-03, 2.57731997e-03, 1.28865996e-02,
          0., 2.57731997e-03, 5.15463995e-03, 0., 0., 2.57731997e-03,
          2.57731997e-03, 2.57731997e-03, 7.73196016e-03, 0.,
          1.03093004e-02, 0., 0., 5.15463995e-03, 2.57731997e-03, 0.,
          2.57731997e-03, 7.73196016e-03, 3.35052013e-02, 0., 0.,
          5.15463995e-03, 2.57731997e-03, 0., 7.73196016e-03,
          5.15463995e-03, 0., 2.57731997e-03, 2.57731997e-03,
          1.28865996e-02, 1.28865996e-02, 7.73196016e-03, 5.15463995e-03,
          5.15463995e-03, 1.03093004e-02, 0., 7.73196016e-03, 0.,
          2.57731997e-03, 2.06186008e-02, 2.57731997e-03, 5.15463995e-03,
          0., 2.57731997e-03, 5.15463995e-03, 2.57731997e-03,
          5.15463995e-03, 0., 0., 5.15463995e-03, 2.57731997e-03, 0.,
          2.57731997e-03, 2.57731997e-03, 0., 1.03093004e-02, 0., 0., 0.,
          5.15463995e-03, 0., 7.73196016e-03, 2.31959000e-02, 0., 0., 0.,
          7.73196016e-03, 2.57731997e-03, 0., 0., 2.57731997e-03,
          1.03093004e-02, 1.28865996e-02, 0., 5.15463995e-03,
          2.57731997e-03, 1.54638998e-02, 1.54638998e-02, 0.,
          2.57731997e-03, 0., 1.80411991e-02, 2.57731997e-03,
          5.15463995e-03, 5.15463995e-03, 2.57731997e-03, 2.57731997e-03,
          2.57731997e-03, 0., 2.57731997e-03, 1.03093004e-02,
          5.15463995e-03, 2.57731997e-03, 2.57731997e-03, 0.,
          5.15463995e-03, 2.57731997e-03, 1.03093004e-02, 0.,
          2.57731997e-03, 2.57731997e-03, 0., 7.73196016e-03, 0., 0., 0.,
          2.57731997e-03, 7.73196016e-03, 0., 5.15463995e-03,
          2.57731997e-03, 7.73196016e-03, 2.57731997e-03, 3.86597998e-02,
          5.15463995e-03, 7.73196016e-03, 0., 0., 2.57731997e-03,
          7.73196016e-03, 0., 7.73196016e-03, 2.57731997e-03, 0.,
          2.57731997e-03, 5.41236997e-02, 7.73196016e-03, 1.03093004e-02,
          2.57731997e-03, 7.73196016e-03, 7.73196016e-03, 5.15463995e-03,
          0., 0., 0., 1.28865996e-02, 2.57731997e-03, 5.15463995e-03,
          2.57731997e-03, 7.73196016e-03, 5.15463995e-03, 2.57731997e-03,
          0., 0., 0., 5.15463995e-03, 0., 2.31959000e-02, 2.57731997e-03,
          0., 2.57731997e-03, 7.73196016e-03, 2.57731997e-03,
          5.15463995e-03, 2.57731997e-03, 5.15463995e-03, 5.15463995e-03,
          0., 0., 2.06186008e-02, 5.15463995e-03, 0., 0., 0.,
          2.22222004e-02, 0., 0., 0., 0., 0., 0., 0., 0., 0., 0., 0., 0.,
          0., 0., 0., 1.33332998e-01, 2.22222004e-02, 0., 0.,
          2.22222004e-02, 4.44444008e-02, 0., 0., 0., 0., 0., 0., 0., 0.,
          0., 0., 0., 0., 2.22222004e-02, 0., 0., 0., 0., 0., 0., 0.,
          2.22222004e-02, 0., 0., 0., 0., 0., 0., 0., 0., 0., 0., 0., 0.,
          0., 0., 0., 0., 0., 0., 0., 0., 4.44444008e-02, 0.,
          2.22222004e-02, 2.22222004e-02, 0., 2.22222004e-02, 0., 0., 0.,
          0., 0., 0., 4.44444008e-02, 0., 0., 0., 0., 0., 0., 0., 0., 0.,
          0., 0., 0., 0., 0., 0., 0., 0., 0., 0., 0., 0., 0., 0., 0., 0.,
          0., 2.22222004e-02, 6.66666999e-02, 0., 0., 0., 0., 0.,
          2.22222004e-02, 0., 0., 0., 0., 0., 0., 0., 2.22222004e-02, 0.,
          0., 0., 0., 0., 0., 0., 0., 0., 2.22222004e-02, 0., 0., 0., 0.,
          0., 2.22222004e-02, 0., 2.22222004e-02, 0., 0., 0., 0., 0., 0.,
          0., 0., 0., 0., 0., 8.88888985e-02, 0., 6.66666999e-02, 0.,
          2.22222004e-02, 0., 0., 0., 0., 0., 0., 0., 0., 0.,
          2.22222004e-02, 0., 0., 2.22222004e-02, 0., 4.44444008e-02, 0.,
          0., 0., 0., 0., 0., 0., 0., 0., 0., 0., 0., 0., 0.,
          4.44444008e-02, 0., 2.22222004e-02, 0., 0., 0., 0., 0., 0., 0.,
          0., 2.22222004e-02, 0., 0., 0., 0. ]
      - [ 3.99999991e-02, 0., 0., 0., 2.66667008e-02, 0., 1.33333001e-02,
          0., 0., 0., 0., 0., 0., 0., 0., 0., 0., 1.33333001e-02,
          1.33333001e-02, 0., 1.33333001e-02, 0., 0., 0., 0., 0., 0., 0.,
          0., 0., 0., 0., 0., 0., 0., 0., 0., 0., 0., 0., 1.33333001e-02,
          0., 1.33333001e-02, 0., 0., 0., 1.33333001e-02, 0., 0.,
          1.33333001e-02, 0., 0., 0., 0., 0., 0., 0., 0., 0., 0.,
          2.66667008e-02, 0., 0., 1.33333001e-02, 0., 0., 0., 0., 0.,
          1.33333001e-02, 1.33333001e-02, 0., 2.66667008e-02, 0., 0.,
          1.33333001e-02, 1.33333001e-02, 0., 2.66667008e-02, 0., 0., 0.,
          0., 0., 0., 0., 2.66667008e-02, 0., 1.33333001e-02, 0., 0., 0.,
          0., 0., 0., 1.33333001e-02, 0., 1.33333001e-02, 1.33333001e-02,
          0., 0., 0., 0., 0., 0., 0., 0., 0., 0., 1.33333001e-02, 0., 0.,
          0., 0., 0., 2.66667008e-02, 0., 0., 0., 1.33333001e-02,
          7.99999982e-02, 1.33333001e-02, 1.33333001e-02, 0., 0., 0.,
          1.33333001e-02, 0., 0., 0., 5.33333011e-02, 3.99999991e-02,
          1.33333001e-02, 0., 0., 0., 0., 0., 1.33333001e-02, 0.,
          1.33333001e-02, 0., 0., 0., 0., 0., 1.33333001e-02, 0., 0., 0.,
          5.33333011e-02, 0., 0., 0., 0., 0., 0., 0., 0., 1.33333001e-02,
          0., 0., 0., 0., 1.33333001e-02, 0., 3.99999991e-02, 0., 0.,
          3.99999991e-02, 0., 0., 0., 0., 1.33333001e-02, 0., 0., 0., 0.,
          0., 2.66667008e-02, 0., 0., 0., 0., 3.99999991e-02, 0.,
          1.33333001e-02, 0., 0., 0., 1.33333001e-02, 0., 0., 0., 0., 0.,
          0., 0., 1.33333001e-02, 0., 1.41508998e-02, 1.88679006e-02,
          4.71697981e-03, 0., 4.71697981e-03, 4.71697981e-03,
          4.71697981e-03, 1.41508998e-02, 0., 0., 9.43395961e-03,
          1.41508998e-02, 0., 1.41508998e-02, 0., 0., 4.71697981e-03, 0.,
          0., 1.41508998e-02, 0., 4.71697981e-03, 9.43395961e-03, 0.,
          4.71697981e-03, 9.43395961e-03, 4.71697981e-03, 4.71697981e-03,
          4.71697981e-03, 0., 1.41508998e-02, 0., 0., 0., 4.71697981e-03,
          9.43395961e-03, 4.71697981e-03, 9.43395961e-03, 4.71697981e-03,
          9.43395961e-03, 9.43395961e-03, 4.71697981e-03, 4.71697981e-03,
          1.41508998e-02, 0., 1.41508998e-02, 4.71697981e-03, 0., 0.,
          4.71697981e-03, 0., 0., 0., 0., 0., 0., 0., 0., 0., 0.,
          1.41508998e-02, 0., 4.71697981e-03, 0., 4.71697981e-03, 0.,
          4.71697981e-03, 0., 0., 4.71697981e-03, 4.71697981e-03, 0., 0.,
          1.41508998e-02, 1.41508998e-02, 1.41508998e-02, 0.,
          4.71697981e-03, 0., 4.71697981e-03, 9.43395961e-03, 0.,
          4.71697981e-03, 4.71697981e-03, 4.71697981e-03, 4.71697981e-03,
          4.71697981e-03, 4.71697981e-03, 9.43395961e-03, 0.,
          4.71697981e-03, 4.71697981e-03, 2.35849004e-02, 0., 0., 0.,
          9.43395961e-03, 0., 1.41508998e-02, 0., 0., 1.41508998e-02,
          9.43395961e-03, 2.83019003e-02, 0., 4.71697981e-03, 0.,
          9.43395961e-03, 0., 4.71697981e-03, 0., 4.71697981e-03,
          9.43395961e-03, 0., 4.71697981e-03, 0., 1.41508998e-02,
          4.71697981e-03, 0., 0., 9.43395961e-03, 0., 0., 4.71697981e-03,
          0., 4.71697981e-03, 4.71697981e-03, 9.43395961e-03,
          9.43395961e-03, 0., 4.71697981e-03, 2.35849004e-02,
          9.43395961e-03, 4.71697981e-03, 0., 0., 9.43395961e-03,
          9.43395961e-03, 0., 4.71697981e-03, 4.71697981e-03,
          4.71697981e-03, 0., 0., 1.88679006e-02, 9.43395961e-03,
          9.43395961e-03, 0., 4.71697981e-03, 0., 4.71697981e-03, 0.,
          4.71697981e-03, 4.71697981e-03, 1.88679006e-02, 0., 0.,
          4.71697981e-03, 0., 0., 9.43395961e-03, 1.41508998e-02, 0., 0.,
          4.71697981e-03, 9.43395961e-03, 0., 0., 4.71697981e-03,
          4.71697981e-03, 9.43395961e-03, 1.41508998e-02, 9.43395961e-03,
          4.71697981e-03, 1.88679006e-02, 1.41508998e-02, 0.,
          4.71697981e-03, 0., 0., 1.88679006e-02, 9.43395961e-03,
          4.71697981e-03, 4.71697981e-03, 0., 4.71697981e-03, 0.,
          9.43395961e-03, 0., 0., 0., 4.71697981e-03, 4.71697981e-03,
          9.43395961e-03, 1.41508998e-02, 4.71697981e-03, 4.71697981e-03,
          0., 4.71697981e-03, 4.22535017e-02, 1.40845003e-02,
          1.40845003e-02, 0., 0., 0., 0., 0., 0., 0., 0., 0., 0., 0., 0.,
